SVM-light Version V6.20
0 # kernel type
3 # kernel parameter -d 
1 # kernel parameter -g 
1 # kernel parameter -s 
1 # kernel parameter -r 
empty# kernel parameter -u 
69416 # highest feature index 
2 # number of training documents 
2 # number of support vectors plus 1 
0 # threshold b, each following line is a SV (starting with alpha*y)
1 58521:7.5642961e-06 58523:7.5642961e-06 58526:-7.5642961e-06 58527:-7.5642961e-06 58536:-7.5642961e-06 58538:-7.5642961e-06 58541:7.5642961e-06 58542:7.5642961e-06 58544:7.5642961e-06 58545:7.5642961e-06 58546:7.5642961e-06 58547:7.5642961e-06 58550:-7.5642961e-06 58551:-7.5642961e-06 58554:7.5642961e-06 58556:7.5642961e-06 58559:-7.5642961e-06 58560:-7.5642961e-06 58563:-7.5642961e-06 58565:-7.5642961e-06 58570:-7.5642961e-06 58575:1.5128592e-05 58579:-7.5642961e-06 58581:-7.5642961e-06 58584:7.5642961e-06 58585:7.5642961e-06 58588:7.5642961e-06 58590:7.5642961e-06 58593:-7.5642961e-06 58594:-7.5642961e-06 58597:1.5128592e-05 58599:-7.5642961e-06 58602:-1.5128592e-05 58603:-7.5642961e-06 58606:7.5642961e-06 58608:7.5642961e-06 58611:-7.5642961e-06 58612:-7.5642961e-06 58614:-1.5128592e-05 58615:1.5128592e-05 58620:7.5642961e-06 58622:7.5642961e-06 58625:-7.5642961e-06 58626:-7.5642961e-06 58629:-7.5642961e-06 58631:-7.5642961e-06 58634:7.5642961e-06 58635:7.5642961e-06 58637:-7.5642961e-06 58644:7.5642961e-06 58649:-7.5642961e-06 58650:-7.5642961e-06 58653:7.5642961e-06 58655:7.5642961e-06 58658:-1.5128592e-05 58661:7.5642961e-06 58662:-7.5642961e-06 58663:7.5642961e-06 58666:-7.5642961e-06 58667:-7.5642961e-06 58670:7.5642961e-06 58672:7.5642961e-06 58675:-7.5642961e-06 58676:-7.5642961e-06 58701:-7.5642961e-06 58703:-7.5642961e-06 58706:7.5642961e-06 58707:7.5642961e-06 58710:-7.5642961e-06 58712:-7.5642961e-06 58715:7.5642961e-06 58716:7.5642961e-06 58719:-7.5642961e-06 58721:-7.5642961e-06 58724:7.5642961e-06 58725:7.5642961e-06 58728:7.5642961e-06 58730:7.5642961e-06 58733:-7.5642961e-06 58734:-7.5642961e-06 58737:-7.5642961e-06 58739:-7.5642961e-06 58741:7.5642961e-06 58742:7.5642961e-06 58747:7.5642961e-06 58750:-7.5642961e-06 58751:-7.5642961e-06 58755:-7.5642961e-06 58758:7.5642961e-06 58759:7.5642961e-06 58762:-7.5642961e-06 58764:-7.5642961e-06 58767:7.5642961e-06 58768:7.5642961e-06 58771:7.5642961e-06 58773:1.5128592e-05 58776:-7.5642961e-06 58777:-7.5642961e-06 58786:7.5642961e-06 58788:7.5642961e-06 58791:-7.5642961e-06 58792:-7.5642961e-06 58807:7.5642961e-06 58809:-1.5128592e-05 58813:-7.5642961e-06 58814:7.5642961e-06 58815:-7.5642961e-06 58817:1.5128592e-05 58818:7.5642961e-06 58821:7.5642961e-06 58823:7.5642961e-06 58826:-7.5642961e-06 58827:-7.5642961e-06 58830:7.5642961e-06 58835:-7.5642961e-06 58836:-7.5642961e-06 58839:-2.269289e-05 58841:-1.5128592e-05 58844:7.5642961e-06 58845:7.5642961e-06 58848:-7.5642961e-06 58850:7.5642961e-06 58853:7.5642961e-06 58854:7.5642961e-06 58857:7.5642961e-06 58863:-1.5128592e-05 58865:-7.5642961e-06 58868:7.5642961e-06 58869:7.5642961e-06 58872:-7.5642961e-06 58874:-7.5642961e-06 58877:7.5642961e-06 58878:7.5642961e-06 58881:-7.5642961e-06 58883:-7.5642961e-06 58885:7.5642961e-06 58886:7.5642961e-06 58889:-7.5642961e-06 58891:-7.5642961e-06 58894:7.5642961e-06 58895:7.5642961e-06 58898:-7.5642961e-06 58900:-7.5642961e-06 58904:7.5642961e-06 58909:7.5642961e-06 58911:-7.5642961e-06 58924:-7.5642961e-06 58925:7.5642961e-06 58929:-7.5642961e-06 58931:-7.5642961e-06 58934:7.5642961e-06 58935:7.5642961e-06 58938:-7.5642961e-06 58940:7.5642961e-06 58943:-1.5128592e-05 58945:2.269289e-05 58952:-7.5642961e-06 58954:-7.5642961e-06 58956:7.5642961e-06 58957:7.5642961e-06 58960:7.5642961e-06 58962:7.5642961e-06 58964:-7.5642961e-06 58965:-7.5642961e-06 58968:-7.5642961e-06 58970:-7.5642961e-06 58977:7.5642961e-06 58979:7.5642961e-06 58982:-7.5642961e-06 58983:-7.5642961e-06 58986:-7.5642961e-06 58988:-7.5642961e-06 58991:7.5642961e-06 58994:7.5642961e-06 58996:7.5642961e-06 58998:-7.5642961e-06 58999:-7.5642961e-06 59005:-7.5642961e-06 59007:-7.5642961e-06 59010:7.5642961e-06 59011:7.5642961e-06 59014:7.5642961e-06 59016:7.5642961e-06 59018:-7.5642961e-06 59019:-7.5642961e-06 59021:-7.5642961e-06 59023:-7.5642961e-06 59026:7.5642961e-06 59029:2.269289e-05 59031:7.5642961e-06 59032:-7.5642961e-06 59033:-7.5642961e-06 59038:-7.5642961e-06 59040:-7.5642961e-06 59042:7.5642961e-06 59043:7.5642961e-06 59057:7.5642961e-06 59061:-7.5642961e-06 59062:-1.5128592e-05 59071:-7.5642961e-06 59073:-7.5642961e-06 59075:7.5642961e-06 59076:7.5642961e-06 59092:-7.5642961e-06 59096:7.5642961e-06 59101:-7.5642961e-06 59104:7.5642961e-06 59105:1.5128592e-05 59108:7.5642961e-06 59110:7.5642961e-06 59112:-7.5642961e-06 59113:-7.5642961e-06 59116:7.5642961e-06 59118:7.5642961e-06 59120:-7.5642961e-06 59121:-7.5642961e-06 59123:-7.5642961e-06 59125:-7.5642961e-06 59126:7.5642961e-06 59127:7.5642961e-06 59136:-7.5642961e-06 59138:-7.5642961e-06 59139:7.5642961e-06 59140:7.5642961e-06 59149:-7.5642961e-06 59151:-7.5642961e-06 59154:7.5642961e-06 59155:7.5642961e-06 59158:-7.5642961e-06 59160:-7.5642961e-06 59161:7.5642961e-06 59162:7.5642961e-06 59165:7.5642961e-06 59167:7.5642961e-06 59169:-7.5642961e-06 59170:-7.5642961e-06 59173:7.5642961e-06 59175:7.5642961e-06 59177:-7.5642961e-06 59178:-7.5642961e-06 59181:-7.5642961e-06 59183:-7.5642961e-06 59186:7.5642961e-06 59189:-7.5642961e-06 59190:7.5642961e-06 59191:-7.5642961e-06 59196:7.5642961e-06 59198:7.5642961e-06 59201:-7.5642961e-06 59202:-7.5642961e-06 59205:7.5642961e-06 59207:7.5642961e-06 59210:-7.5642961e-06 59211:-7.5642961e-06 59214:-7.5642961e-06 59216:-7.5642961e-06 59218:7.5642961e-06 59219:7.5642961e-06 59222:7.5642961e-06 59224:7.5642961e-06 59227:-1.5128592e-05 59228:-7.5642961e-06 59231:-7.5642961e-06 59233:-7.5642961e-06 59236:7.5642961e-06 59237:7.5642961e-06 59240:-7.5642961e-06 59242:-7.5642961e-06 59244:7.5642961e-06 59245:7.5642961e-06 59248:7.5642961e-06 59250:7.5642961e-06 59253:-7.5642961e-06 59254:-1.5128592e-05 59257:-7.5642961e-06 59259:-1.5128592e-05 59262:7.5642961e-06 59265:-7.5642961e-06 59273:7.5642961e-06 59275:7.5642961e-06 59277:-7.5642961e-06 59278:-7.5642961e-06 59281:7.5642961e-06 59283:7.5642961e-06 59286:-7.5642961e-06 59287:-7.5642961e-06 59290:7.5642961e-06 59292:7.5642961e-06 59295:-7.5642961e-06 59296:-7.5642961e-06 59299:7.5642961e-06 59301:7.5642961e-06 59304:-7.5642961e-06 59305:-7.5642961e-06 59312:7.5642961e-06 59316:-7.5642961e-06 59318:-7.5642961e-06 59319:7.5642961e-06 59321:7.5642961e-06 59325:-7.5642961e-06 59327:-7.5642961e-06 59330:7.5642961e-06 59334:-7.5642961e-06 59336:-1.5128592e-05 59339:7.5642961e-06 59340:7.5642961e-06 59343:7.5642961e-06 59345:7.5642961e-06 59348:-7.5642961e-06 59349:-7.5642961e-06 59352:-7.5642961e-06 59354:-7.5642961e-06 59355:7.5642961e-06 59356:7.5642961e-06 59359:-7.5642961e-06 59361:-7.5642961e-06 59364:7.5642961e-06 59366:-7.5642961e-06 59371:-7.5642961e-06 59373:-1.5128592e-05 59377:-7.5642961e-06 59378:7.5642961e-06 59381:7.5642961e-06 59382:7.5642961e-06 59385:-7.5642961e-06 59387:-7.5642961e-06 59391:7.5642961e-06 59394:-7.5642961e-06 59396:-7.5642961e-06 59399:7.5642961e-06 59400:7.5642961e-06 59403:-7.5642961e-06 59405:-7.5642961e-06 59407:7.5642961e-06 59408:7.5642961e-06 59411:-7.5642961e-06 59413:-7.5642961e-06 59416:7.5642961e-06 59417:7.5642961e-06 59420:1.5128592e-05 59422:7.5642961e-06 59425:-7.5642961e-06 59426:-7.5642961e-06 59429:7.5642961e-06 59431:7.5642961e-06 59434:-7.5642961e-06 59437:7.5642961e-06 59443:2.269289e-05 59447:-7.5642961e-06 59448:-7.5642961e-06 59451:7.5642961e-06 59453:7.5642961e-06 59455:-7.5642961e-06 59456:-7.5642961e-06 59459:-7.5642961e-06 59462:7.5642961e-06 59464:-7.5642961e-06 59466:-7.5642961e-06 59469:7.5642961e-06 59470:7.5642961e-06 59479:-7.5642961e-06 59481:-7.5642961e-06 59484:7.5642961e-06 59485:7.5642961e-06 59488:7.5642961e-06 59490:7.5642961e-06 59492:-7.5642961e-06 59493:-7.5642961e-06 59496:-7.5642961e-06 59498:-7.5642961e-06 59499:7.5642961e-06 59500:7.5642961e-06 59502:7.5642961e-06 59504:7.5642961e-06 59511:7.5642961e-06 59514:7.5642961e-06 59516:7.5642961e-06 59519:-7.5642961e-06 59520:-7.5642961e-06 59523:7.5642961e-06 59525:7.5642961e-06 59528:-7.5642961e-06 59529:-7.5642961e-06 59532:7.5642961e-06 59534:7.5642961e-06 59536:-7.5642961e-06 59539:-7.5642961e-06 59540:7.5642961e-06 59542:7.5642961e-06 59545:7.5642961e-06 59547:7.5642961e-06 59550:-7.5642961e-06 59551:-7.5642961e-06 59554:7.5642961e-06 59556:7.5642961e-06 59559:-7.5642961e-06 59560:-7.5642961e-06 59569:7.5642961e-06 59571:7.5642961e-06 59574:-7.5642961e-06 59575:-7.5642961e-06 59578:-7.5642961e-06 59580:-7.5642961e-06 59583:7.5642961e-06 59584:7.5642961e-06 59587:7.5642961e-06 59589:7.5642961e-06 59592:-7.5642961e-06 59593:-7.5642961e-06 59597:-7.5642961e-06 59599:7.5642961e-06 59600:7.5642961e-06 59603:7.5642961e-06 59605:7.5642961e-06 59607:-7.5642961e-06 59608:-7.5642961e-06 59611:7.5642961e-06 59613:7.5642961e-06 59616:-7.5642961e-06 59617:-7.5642961e-06 59620:7.5642961e-06 59622:7.5642961e-06 59625:-7.5642961e-06 59627:-7.5642961e-06 59628:-7.5642961e-06 59630:7.5642961e-06 59631:7.5642961e-06 59634:-7.5642961e-06 59636:-7.5642961e-06 59639:7.5642961e-06 59640:7.5642961e-06 59643:-7.5642961e-06 59645:-7.5642961e-06 59648:7.5642961e-06 59649:7.5642961e-06 59661:-7.5642961e-06 59665:-7.5642961e-06 59667:-7.5642961e-06 59670:7.5642961e-06 59671:7.5642961e-06 59674:-7.5642961e-06 59676:-7.5642961e-06 59678:7.5642961e-06 59679:7.5642961e-06 59685:-7.5642961e-06 59687:-7.5642961e-06 59689:7.5642961e-06 59690:7.5642961e-06 59692:7.5642961e-06 59694:7.5642961e-06 59696:-7.5642961e-06 59697:-7.5642961e-06 59701:7.5642961e-06 59704:-7.5642961e-06 59705:-7.5642961e-06 59713:-7.5642961e-06 59715:-7.5642961e-06 59718:7.5642961e-06 59721:-7.5642961e-06 59723:-7.5642961e-06 59725:7.5642961e-06 59726:7.5642961e-06 59736:7.5642961e-06 59738:7.5642961e-06 59740:7.5642961e-06 59743:-7.5642961e-06 59744:-7.5642961e-06 59749:-7.5642961e-06 59753:-7.5642961e-06 59764:7.5642961e-06 59765:-7.5642961e-06 59766:-7.5642961e-06 59769:7.5642961e-06 59771:7.5642961e-06 59773:-7.5642961e-06 59774:-7.5642961e-06 59776:7.5642961e-06 59777:7.5642961e-06 59780:7.5642961e-06 59782:7.5642961e-06 59785:-7.5642961e-06 59794:7.5642961e-06 59796:7.5642961e-06 59798:-7.5642961e-06 59799:-7.5642961e-06 59802:-7.5642961e-06 59804:-7.5642961e-06 59807:7.5642961e-06 59808:7.5642961e-06 59811:7.5642961e-06 59813:7.5642961e-06 59815:-7.5642961e-06 59816:-7.5642961e-06 59825:7.5642961e-06 59827:-7.5642961e-06 59828:-7.5642961e-06 59830:7.5642961e-06 59831:-7.5642961e-06 59833:-7.5642961e-06 59837:7.5642961e-06 59840:7.5642961e-06 59842:7.5642961e-06 59845:-7.5642961e-06 59846:-7.5642961e-06 59864:7.5642961e-06 59866:7.5642961e-06 59869:-7.5642961e-06 59872:7.5642961e-06 59874:7.5642961e-06 59878:-7.5642961e-06 59880:-7.5642961e-06 59882:-7.5642961e-06 59884:7.5642961e-06 59885:1.5128592e-05 59888:-7.5642961e-06 59890:-7.5642961e-06 59893:7.5642961e-06 59894:7.5642961e-06 59897:-7.5642961e-06 59899:-7.5642961e-06 59902:7.5642961e-06 59903:7.5642961e-06 59906:7.5642961e-06 59908:7.5642961e-06 59911:-7.5642961e-06 59912:-7.5642961e-06 59915:-7.5642961e-06 59917:-7.5642961e-06 59919:7.5642961e-06 59920:7.5642961e-06 59923:7.5642961e-06 59925:7.5642961e-06 59926:-7.5642961e-06 59927:-7.5642961e-06 59929:-7.5642961e-06 59931:-7.5642961e-06 59934:7.5642961e-06 59935:7.5642961e-06 59943:7.5642961e-06 59945:7.5642961e-06 59948:-7.5642961e-06 59949:-7.5642961e-06 59957:7.5642961e-06 59959:7.5642961e-06 59961:-7.5642961e-06 59962:-7.5642961e-06 59963:-7.5642961e-06 59965:7.5642961e-06 59967:7.5642961e-06 59970:-7.5642961e-06 59971:-7.5642961e-06 59973:-7.5642961e-06 59976:-7.5642961e-06 59978:-7.5642961e-06 59979:7.5642961e-06 59980:7.5642961e-06 59983:-7.5642961e-06 59985:-7.5642961e-06 59987:7.5642961e-06 59988:7.5642961e-06 59996:-7.5642961e-06 59998:-7.5642961e-06 60000:7.5642961e-06 60001:7.5642961e-06 60004:7.5642961e-06 60006:7.5642961e-06 60009:-7.5642961e-06 60010:-7.5642961e-06 60013:-7.5642961e-06 60015:7.5642961e-06 60016:7.5642961e-06 60019:-7.5642961e-06 60021:-7.5642961e-06 60024:7.5642961e-06 60025:7.5642961e-06 60028:7.5642961e-06 60029:-7.5642961e-06 60030:-7.5642961e-06 60033:7.5642961e-06 60038:-1.5128592e-05 60039:-1.5128592e-05 60043:-7.5642961e-06 60046:7.5642961e-06 60047:7.5642961e-06 60051:-7.5642961e-06 60054:7.5642961e-06 60055:7.5642961e-06 60066:-7.5642961e-06 60070:7.5642961e-06 60071:7.5642961e-06 60074:-7.5642961e-06 60076:-7.5642961e-06 60079:7.5642961e-06 60080:7.5642961e-06 60083:-7.5642961e-06 60085:-7.5642961e-06 60088:7.5642961e-06 60090:-7.5642961e-06 60092:-7.5642961e-06 60095:7.5642961e-06 60096:7.5642961e-06 60099:7.5642961e-06 60101:7.5642961e-06 60103:-7.5642961e-06 60104:-7.5642961e-06 60107:7.5642961e-06 60109:7.5642961e-06 60111:-7.5642961e-06 60112:-7.5642961e-06 60115:-7.5642961e-06 60117:-7.5642961e-06 60118:7.5642961e-06 60120:7.5642961e-06 60126:7.5642961e-06 60128:7.5642961e-06 60130:7.5642961e-06 60133:-7.5642961e-06 60134:-7.5642961e-06 60143:-7.5642961e-06 60145:-7.5642961e-06 60147:7.5642961e-06 60148:7.5642961e-06 60151:-7.5642961e-06 60153:-7.5642961e-06 60156:7.5642961e-06 60157:7.5642961e-06 60160:7.5642961e-06 60162:7.5642961e-06 60163:-7.5642961e-06 60164:-7.5642961e-06 60167:-7.5642961e-06 60169:-7.5642961e-06 60172:7.5642961e-06 60175:7.5642961e-06 60177:7.5642961e-06 60179:-7.5642961e-06 60180:-7.5642961e-06 60184:-7.5642961e-06 60187:7.5642961e-06 60188:7.5642961e-06 60196:-7.5642961e-06 60198:7.5642961e-06 60201:-7.5642961e-06 60205:7.5642961e-06 60206:7.5642961e-06 60209:-7.5642961e-06 60211:-7.5642961e-06 60214:7.5642961e-06 60215:7.5642961e-06 60217:7.5642961e-06 60218:-7.5642961e-06 60219:-7.5642961e-06 60222:-7.5642961e-06 60224:-7.5642961e-06 60226:7.5642961e-06 60227:7.5642961e-06 60229:7.5642961e-06 60230:-7.5642961e-06 60232:-7.5642961e-06 60239:-7.5642961e-06 60241:-7.5642961e-06 60244:7.5642961e-06 60245:7.5642961e-06 60251:-7.5642961e-06 60253:-7.5642961e-06 60256:7.5642961e-06 60257:7.5642961e-06 60259:-7.5642961e-06 60261:7.5642961e-06 60262:7.5642961e-06 60269:7.5642961e-06 60271:7.5642961e-06 60273:-7.5642961e-06 60274:-7.5642961e-06 60277:-7.5642961e-06 60279:-7.5642961e-06 60282:1.5128592e-05 60286:-7.5642961e-06 60288:-7.5642961e-06 60290:7.5642961e-06 60291:7.5642961e-06 60294:-7.5642961e-06 60297:7.5642961e-06 60300:-7.5642961e-06 60302:-7.5642961e-06 60304:7.5642961e-06 60307:-7.5642961e-06 60309:-7.5642961e-06 60311:7.5642961e-06 60313:-7.5642961e-06 60315:-7.5642961e-06 60317:7.5642961e-06 60318:7.5642961e-06 60326:7.5642961e-06 60328:7.5642961e-06 60330:-7.5642961e-06 60331:-7.5642961e-06 60342:-7.5642961e-06 60343:7.5642961e-06 60344:7.5642961e-06 60347:-7.5642961e-06 60350:7.5642961e-06 60351:7.5642961e-06 60354:-7.5642961e-06 60356:-7.5642961e-06 60359:7.5642961e-06 60360:7.5642961e-06 60369:-7.5642961e-06 60371:-7.5642961e-06 60373:7.5642961e-06 60374:7.5642961e-06 60382:-7.5642961e-06 60384:-7.5642961e-06 60386:7.5642961e-06 60387:7.5642961e-06 60389:7.5642961e-06 60390:-7.5642961e-06 60392:-7.5642961e-06 60395:-7.5642961e-06 60397:-7.5642961e-06 60398:7.5642961e-06 60399:7.5642961e-06 60401:7.5642961e-06 60403:7.5642961e-06 60406:-7.5642961e-06 60407:-7.5642961e-06 60410:-7.5642961e-06 60412:-7.5642961e-06 60415:7.5642961e-06 60416:7.5642961e-06 60423:-7.5642961e-06 60425:-7.5642961e-06 60427:7.5642961e-06 60428:7.5642961e-06 60431:7.5642961e-06 60433:7.5642961e-06 60435:-7.5642961e-06 60436:-7.5642961e-06 60439:7.5642961e-06 60441:7.5642961e-06 60443:-7.5642961e-06 60444:-7.5642961e-06 60447:-7.5642961e-06 60449:7.5642961e-06 60450:7.5642961e-06 60454:7.5642961e-06 60455:7.5642961e-06 60457:7.5642961e-06 60461:7.5642961e-06 60462:-7.5642961e-06 60481:-7.5642961e-06 60483:-7.5642961e-06 60488:7.5642961e-06 60490:7.5642961e-06 60492:-7.5642961e-06 60493:-7.5642961e-06 60496:7.5642961e-06 60498:-7.5642961e-06 60499:-7.5642961e-06 60502:7.5642961e-06 60504:7.5642961e-06 60507:-7.5642961e-06 60508:-7.5642961e-06 60511:-7.5642961e-06 60513:-7.5642961e-06 60516:7.5642961e-06 60517:7.5642961e-06 60520:-7.5642961e-06 60522:-7.5642961e-06 60524:7.5642961e-06 60525:7.5642961e-06 60534:-7.5642961e-06 60536:-7.5642961e-06 60539:7.5642961e-06 60540:7.5642961e-06 60543:7.5642961e-06 60545:7.5642961e-06 60547:-7.5642961e-06 60548:-7.5642961e-06 60557:-7.5642961e-06 60559:-7.5642961e-06 60562:7.5642961e-06 60563:7.5642961e-06 60567:-7.5642961e-06 60570:7.5642961e-06 60571:7.5642961e-06 60585:7.5642961e-06 60587:7.5642961e-06 60589:-7.5642961e-06 60590:-7.5642961e-06 60592:-7.5642961e-06 60594:-7.5642961e-06 60595:3.0257184e-05 60601:-7.5642961e-06 60603:-7.5642961e-06 60606:7.5642961e-06 60607:7.5642961e-06 60610:-7.5642961e-06 60612:-7.5642961e-06 60615:7.5642961e-06 60620:-7.5642961e-06 60622:7.5642961e-06 60624:-7.5642961e-06 60626:-7.5642961e-06 60629:7.5642961e-06 60630:7.5642961e-06 60632:-7.5642961e-06 60633:7.5642961e-06 60642:7.5642961e-06 60644:7.5642961e-06 60647:-7.5642961e-06 60648:-7.5642961e-06 60650:7.5642961e-06 60651:-7.5642961e-06 60653:-7.5642961e-06 60656:7.5642961e-06 60657:-7.5642961e-06 60659:-7.5642961e-06 60663:-7.5642961e-06 60665:7.5642961e-06 60668:7.5642961e-06 60670:7.5642961e-06 60673:-7.5642961e-06 60675:-7.5642961e-06 60677:-7.5642961e-06 60679:-7.5642961e-06 60681:7.5642961e-06 60682:7.5642961e-06 60693:7.5642961e-06 60694:7.5642961e-06 60696:-7.5642961e-06 60698:-7.5642961e-06 60701:7.5642961e-06 60702:7.5642961e-06 60705:-7.5642961e-06 60707:-7.5642961e-06 60710:7.5642961e-06 60711:7.5642961e-06 60714:7.5642961e-06 60716:7.5642961e-06 60718:-7.5642961e-06 60719:-7.5642961e-06 60722:-7.5642961e-06 60724:-7.5642961e-06 60727:7.5642961e-06 60728:7.5642961e-06 60732:7.5642961e-06 60733:-7.5642961e-06 60734:-7.5642961e-06 60737:7.5642961e-06 60739:-7.5642961e-06 60741:7.5642961e-06 60743:7.5642961e-06 60745:-7.5642961e-06 60746:-7.5642961e-06 60749:7.5642961e-06 60751:7.5642961e-06 60753:-7.5642961e-06 60754:-7.5642961e-06 60757:7.5642961e-06 60759:7.5642961e-06 60762:-7.5642961e-06 60763:-7.5642961e-06 60766:-7.5642961e-06 60771:7.5642961e-06 60773:7.5642961e-06 60776:-7.5642961e-06 60779:7.5642961e-06 60781:7.5642961e-06 60784:-1.5128592e-05 60787:7.5642961e-06 60789:-7.5642961e-06 60790:-7.5642961e-06 60794:7.5642961e-06 60795:7.5642961e-06 60803:7.5642961e-06 60805:7.5642961e-06 60808:-7.5642961e-06 60809:-7.5642961e-06 60812:-7.5642961e-06 60814:-7.5642961e-06 60816:7.5642961e-06 60817:7.5642961e-06 60820:-7.5642961e-06 60822:-7.5642961e-06 60825:7.5642961e-06 60826:7.5642961e-06 60835:7.5642961e-06 60837:7.5642961e-06 60839:-7.5642961e-06 60840:-7.5642961e-06 60842:-7.5642961e-06 60844:7.5642961e-06 60845:7.5642961e-06 60846:-7.5642961e-06 60847:7.5642961e-06 60849:-7.5642961e-06 60851:-7.5642961e-06 60854:7.5642961e-06 60857:-7.5642961e-06 60859:-7.5642961e-06 60861:7.5642961e-06 60862:7.5642961e-06 60865:-7.5642961e-06 60867:-7.5642961e-06 60868:7.5642961e-06 60869:7.5642961e-06 60874:7.5642961e-06 60876:7.5642961e-06 60878:-7.5642961e-06 60879:-7.5642961e-06 60882:7.5642961e-06 60884:7.5642961e-06 60886:-7.5642961e-06 60889:-7.5642961e-06 60891:-7.5642961e-06 60894:7.5642961e-06 60896:7.5642961e-06 60897:-7.5642961e-06 60899:-7.5642961e-06 60906:7.5642961e-06 60908:7.5642961e-06 60909:-7.5642961e-06 60910:-7.5642961e-06 60912:-7.5642961e-06 60914:-7.5642961e-06 60917:7.5642961e-06 60919:-7.5642961e-06 60920:-7.5642961e-06 60928:-7.5642961e-06 60930:-7.5642961e-06 60932:7.5642961e-06 60933:7.5642961e-06 60936:-7.5642961e-06 60938:-7.5642961e-06 60940:7.5642961e-06 60941:7.5642961e-06 60949:-7.5642961e-06 60951:-7.5642961e-06 60954:7.5642961e-06 60955:7.5642961e-06 60958:-7.5642961e-06 60960:-7.5642961e-06 60962:7.5642961e-06 60963:7.5642961e-06 60965:-7.5642961e-06 60967:-7.5642961e-06 60969:7.5642961e-06 60970:7.5642961e-06 60972:7.5642961e-06 60980:-1.5128592e-05 60981:-7.5642961e-06 60984:7.5642961e-06 60988:-7.5642961e-06 60990:-7.5642961e-06 60992:7.5642961e-06 60993:7.5642961e-06 60995:-7.5642961e-06 60997:7.5642961e-06 61000:-7.5642961e-06 61002:-7.5642961e-06 61004:7.5642961e-06 61005:7.5642961e-06 61013:-7.5642961e-06 61015:7.5642961e-06 61018:-7.5642961e-06 61020:-7.5642961e-06 61022:7.5642961e-06 61023:7.5642961e-06 61025:-7.5642961e-06 61027:-7.5642961e-06 61030:7.5642961e-06 61031:7.5642961e-06 61034:-7.5642961e-06 61036:-7.5642961e-06 61039:7.5642961e-06 61040:7.5642961e-06 61043:-7.5642961e-06 61048:7.5642961e-06 61049:7.5642961e-06 61051:-7.5642961e-06 61052:-7.5642961e-06 61054:7.5642961e-06 61057:-7.5642961e-06 61059:7.5642961e-06 61066:-7.5642961e-06 61071:-7.5642961e-06 61073:-7.5642961e-06 61074:7.5642961e-06 61075:7.5642961e-06 61078:-7.5642961e-06 61080:-7.5642961e-06 61083:7.5642961e-06 61084:7.5642961e-06 61087:-7.5642961e-06 61089:-7.5642961e-06 61092:7.5642961e-06 61093:7.5642961e-06 61100:-7.5642961e-06 61102:-7.5642961e-06 61103:7.5642961e-06 61104:7.5642961e-06 61105:-7.5642961e-06 61107:7.5642961e-06 61108:7.5642961e-06 61111:-7.5642961e-06 61115:7.5642961e-06 61116:7.5642961e-06 61119:-7.5642961e-06 61121:-7.5642961e-06 61123:7.5642961e-06 61124:7.5642961e-06 61128:7.5642961e-06 61130:7.5642961e-06 61133:-7.5642961e-06 61134:-7.5642961e-06 61137:-7.5642961e-06 61139:-7.5642961e-06 61141:7.5642961e-06 61142:7.5642961e-06 61147:7.5642961e-06 61148:7.5642961e-06 61151:-7.5642961e-06 61155:7.5642961e-06 61157:-7.5642961e-06 61159:-7.5642961e-06 61161:7.5642961e-06 61162:7.5642961e-06 61165:-7.5642961e-06 61167:-7.5642961e-06 61170:7.5642961e-06 61171:7.5642961e-06 61173:-7.5642961e-06 61175:7.5642961e-06 61176:1.5128592e-05 61178:-7.5642961e-06 61180:-7.5642961e-06 61182:7.5642961e-06 61183:7.5642961e-06 61186:-7.5642961e-06 61188:-7.5642961e-06 61190:7.5642961e-06 61191:7.5642961e-06 61193:-7.5642961e-06 61195:-7.5642961e-06 61197:1.5128592e-05 61198:7.5642961e-06 61206:-7.5642961e-06 61208:-7.5642961e-06 61211:7.5642961e-06 61214:7.5642961e-06 61216:7.5642961e-06 61219:-7.5642961e-06 61222:-7.5642961e-06 61224:7.5642961e-06 61227:-7.5642961e-06 61229:-7.5642961e-06 61231:7.5642961e-06 61232:7.5642961e-06 61236:-7.5642961e-06 61239:7.5642961e-06 61240:7.5642961e-06 61245:7.5642961e-06 61247:7.5642961e-06 61249:-7.5642961e-06 61250:-7.5642961e-06 61253:-7.5642961e-06 61255:-7.5642961e-06 61258:1.5128592e-05 61261:-7.5642961e-06 61263:-7.5642961e-06 61266:7.5642961e-06 61267:7.5642961e-06 61271:-7.5642961e-06 61274:7.5642961e-06 61275:7.5642961e-06 61278:-7.5642961e-06 61280:-7.5642961e-06 61282:7.5642961e-06 61283:7.5642961e-06 61289:-7.5642961e-06 61290:-7.5642961e-06 61292:-7.5642961e-06 61295:7.5642961e-06 61297:-1.5128592e-05 61300:7.5642961e-06 61301:7.5642961e-06 61304:-7.5642961e-06 61306:-7.5642961e-06 61309:7.5642961e-06 61310:7.5642961e-06 61313:-7.5642961e-06 61315:-7.5642961e-06 61317:7.5642961e-06 61318:7.5642961e-06 61321:-7.5642961e-06 61323:-7.5642961e-06 61326:7.5642961e-06 61331:7.5642961e-06 61335:-7.5642961e-06 61337:-7.5642961e-06 61338:7.5642961e-06 61339:7.5642961e-06 61342:-7.5642961e-06 61344:-7.5642961e-06 61347:7.5642961e-06 61348:7.5642961e-06 61351:-7.5642961e-06 61353:7.5642961e-06 61354:7.5642961e-06 61364:-7.5642961e-06 61369:-7.5642961e-06 61371:-7.5642961e-06 61374:7.5642961e-06 61377:-7.5642961e-06 61379:-7.5642961e-06 61381:7.5642961e-06 61384:-7.5642961e-06 61386:-7.5642961e-06 61389:7.5642961e-06 61390:7.5642961e-06 61393:-7.5642961e-06 61395:-7.5642961e-06 61396:7.5642961e-06 61398:7.5642961e-06 61399:-7.5642961e-06 61401:-7.5642961e-06 61403:-7.5642961e-06 61405:-7.5642961e-06 61406:7.5642961e-06 61407:7.5642961e-06 61412:7.5642961e-06 61414:7.5642961e-06 61417:-7.5642961e-06 61418:-7.5642961e-06 61421:-7.5642961e-06 61423:-7.5642961e-06 61425:7.5642961e-06 61426:7.5642961e-06 61429:-7.5642961e-06 61431:-7.5642961e-06 61432:7.5642961e-06 61433:7.5642961e-06 61436:-7.5642961e-06 61438:-7.5642961e-06 61441:7.5642961e-06 61442:7.5642961e-06 61445:7.5642961e-06 61447:7.5642961e-06 61449:-7.5642961e-06 61450:-7.5642961e-06 61452:-7.5642961e-06 61454:-7.5642961e-06 61456:7.5642961e-06 61457:7.5642961e-06 61460:-7.5642961e-06 61462:-7.5642961e-06 61464:7.5642961e-06 61465:7.5642961e-06 61468:-7.5642961e-06 61470:-7.5642961e-06 61473:7.5642961e-06 61474:7.5642961e-06 61477:-7.5642961e-06 61479:-7.5642961e-06 61481:7.5642961e-06 61482:7.5642961e-06 61485:-7.5642961e-06 61487:-7.5642961e-06 61489:7.5642961e-06 61490:7.5642961e-06 61493:-7.5642961e-06 61495:-7.5642961e-06 61498:7.5642961e-06 61499:7.5642961e-06 61506:-7.5642961e-06 61508:-7.5642961e-06 61510:7.5642961e-06 61511:7.5642961e-06 61514:-7.5642961e-06 61516:-7.5642961e-06 61517:7.5642961e-06 61518:7.5642961e-06 61521:-7.5642961e-06 61523:-7.5642961e-06 61525:7.5642961e-06 61526:7.5642961e-06 61529:-7.5642961e-06 61531:-7.5642961e-06 61534:7.5642961e-06 61535:7.5642961e-06 61538:-7.5642961e-06 61540:-7.5642961e-06 61543:7.5642961e-06 61544:7.5642961e-06 61547:-7.5642961e-06 61549:-7.5642961e-06 61551:7.5642961e-06 61552:7.5642961e-06 61555:-7.5642961e-06 61557:-7.5642961e-06 61559:7.5642961e-06 61560:7.5642961e-06 61564:-7.5642961e-06 61567:7.5642961e-06 61568:7.5642961e-06 61577:-7.5642961e-06 61579:-7.5642961e-06 61582:7.5642961e-06 61583:7.5642961e-06 61586:-7.5642961e-06 61588:-7.5642961e-06 61591:7.5642961e-06 61592:7.5642961e-06 61595:-7.5642961e-06 61597:-7.5642961e-06 61600:7.5642961e-06 61603:-7.5642961e-06 61605:-7.5642961e-06 61608:7.5642961e-06 61609:7.5642961e-06 61611:7.5642961e-06 61613:7.5642961e-06 61616:-7.5642961e-06 61618:-7.5642961e-06 61621:7.5642961e-06 61622:7.5642961e-06 61625:-7.5642961e-06 61627:-7.5642961e-06 61629:7.5642961e-06 61630:7.5642961e-06 61639:-7.5642961e-06 61642:7.5642961e-06 61643:7.5642961e-06 61646:7.5642961e-06 61648:7.5642961e-06 61650:-7.5642961e-06 61651:-7.5642961e-06 61654:-7.5642961e-06 61656:-7.5642961e-06 61658:7.5642961e-06 61659:7.5642961e-06 61666:-7.5642961e-06 61668:-7.5642961e-06 61671:7.5642961e-06 61672:7.5642961e-06 61675:-7.5642961e-06 61677:-7.5642961e-06 61679:7.5642961e-06 61680:7.5642961e-06 61683:-7.5642961e-06 61685:-7.5642961e-06 61688:7.5642961e-06 61689:7.5642961e-06 61692:7.5642961e-06 61695:-1.5128592e-05 61701:-7.5642961e-06 61703:7.5642961e-06 61704:7.5642961e-06 61707:-7.5642961e-06 61709:-7.5642961e-06 61711:7.5642961e-06 61714:7.5642961e-06 61716:7.5642961e-06 61718:-7.5642961e-06 61719:-7.5642961e-06 61721:7.5642961e-06 61722:-7.5642961e-06 61723:-7.5642961e-06 61724:-7.5642961e-06 61726:-7.5642961e-06 61728:7.5642961e-06 61729:7.5642961e-06 61732:-7.5642961e-06 61734:-7.5642961e-06 61737:7.5642961e-06 61738:7.5642961e-06 61741:7.5642961e-06 61743:7.5642961e-06 61746:-7.5642961e-06 61747:-7.5642961e-06 61750:7.5642961e-06 61752:7.5642961e-06 61754:-7.5642961e-06 61755:-7.5642961e-06 61758:-7.5642961e-06 61760:-7.5642961e-06 61763:7.5642961e-06 61764:7.5642961e-06 61768:7.5642961e-06 61771:-7.5642961e-06 61772:-7.5642961e-06 61775:-7.5642961e-06 61777:-7.5642961e-06 61779:7.5642961e-06 61780:7.5642961e-06 61783:-7.5642961e-06 61784:-7.5642961e-06 61785:-7.5642961e-06 61788:7.5642961e-06 61789:7.5642961e-06 61792:-7.5642961e-06 61794:-7.5642961e-06 61797:7.5642961e-06 61798:7.5642961e-06 61804:7.5642961e-06 61805:7.5642961e-06 61808:-7.5642961e-06 61810:-7.5642961e-06 61812:7.5642961e-06 61813:7.5642961e-06 61815:-7.5642961e-06 61817:-7.5642961e-06 61820:7.5642961e-06 61821:7.5642961e-06 61824:7.5642961e-06 61826:7.5642961e-06 61827:-7.5642961e-06 61828:-7.5642961e-06 61831:-7.5642961e-06 61833:-7.5642961e-06 61836:7.5642961e-06 61837:7.5642961e-06 61840:7.5642961e-06 61842:7.5642961e-06 61846:7.5642961e-06 61848:7.5642961e-06 61851:-7.5642961e-06 61852:-7.5642961e-06 61855:-7.5642961e-06 61857:-7.5642961e-06 61860:7.5642961e-06 61861:7.5642961e-06 61864:-7.5642961e-06 61866:-7.5642961e-06 61869:7.5642961e-06 61870:7.5642961e-06 61872:7.5642961e-06 61873:-7.5642961e-06 61875:-7.5642961e-06 61878:7.5642961e-06 61880:7.5642961e-06 61881:-7.5642961e-06 61882:-7.5642961e-06 61885:-7.5642961e-06 61887:-7.5642961e-06 61890:7.5642961e-06 61891:7.5642961e-06 61894:-7.5642961e-06 61896:-7.5642961e-06 61899:7.5642961e-06 61900:7.5642961e-06 61903:7.5642961e-06 61905:7.5642961e-06 61908:-7.5642961e-06 61911:1.5128592e-05 61913:7.5642961e-06 61916:-7.5642961e-06 61917:-7.5642961e-06 61920:-7.5642961e-06 61922:-7.5642961e-06 61924:7.5642961e-06 61927:-7.5642961e-06 61929:-7.5642961e-06 61931:7.5642961e-06 61932:7.5642961e-06 61935:7.5642961e-06 61937:7.5642961e-06 61938:-7.5642961e-06 61939:-7.5642961e-06 61941:-7.5642961e-06 61942:-7.5642961e-06 61945:-7.5642961e-06 61947:-7.5642961e-06 61949:7.5642961e-06 61950:7.5642961e-06 61953:-7.5642961e-06 61955:-7.5642961e-06 61957:7.5642961e-06 61958:7.5642961e-06 61961:-7.5642961e-06 61963:-7.5642961e-06 61966:7.5642961e-06 61967:7.5642961e-06 61970:-7.5642961e-06 61972:-7.5642961e-06 61974:7.5642961e-06 61975:7.5642961e-06 61977:-7.5642961e-06 61979:7.5642961e-06 61980:7.5642961e-06 61983:7.5642961e-06 61985:7.5642961e-06 61987:-7.5642961e-06 61988:-7.5642961e-06 61991:-7.5642961e-06 61993:-7.5642961e-06 61996:7.5642961e-06 61997:7.5642961e-06 62000:-7.5642961e-06 62002:-7.5642961e-06 62005:7.5642961e-06 62006:7.5642961e-06 62009:-7.5642961e-06 62011:-7.5642961e-06 62013:7.5642961e-06 62014:7.5642961e-06 62017:-7.5642961e-06 62019:-7.5642961e-06 62022:7.5642961e-06 62023:7.5642961e-06 62026:-7.5642961e-06 62028:-7.5642961e-06 62031:7.5642961e-06 62034:-7.5642961e-06 62036:-7.5642961e-06 62039:7.5642961e-06 62040:7.5642961e-06 62043:-7.5642961e-06 62045:-7.5642961e-06 62047:7.5642961e-06 62048:7.5642961e-06 62051:7.5642961e-06 62053:7.5642961e-06 62055:-7.5642961e-06 62056:-1.5128592e-05 62059:-7.5642961e-06 62061:-7.5642961e-06 62064:7.5642961e-06 62065:7.5642961e-06 62068:-7.5642961e-06 62071:7.5642961e-06 62072:7.5642961e-06 62075:-7.5642961e-06 62077:-7.5642961e-06 62079:7.5642961e-06 62080:7.5642961e-06 62089:-7.5642961e-06 62091:-7.5642961e-06 62093:7.5642961e-06 62094:7.5642961e-06 62096:7.5642961e-06 62098:-7.5642961e-06 62099:-7.5642961e-06 62101:7.5642961e-06 62102:7.5642961e-06 62104:-7.5642961e-06 62106:7.5642961e-06 62107:7.5642961e-06 62110:7.5642961e-06 62112:7.5642961e-06 62114:-7.5642961e-06 62115:-7.5642961e-06 62118:-7.5642961e-06 62121:7.5642961e-06 62124:-7.5642961e-06 62126:-7.5642961e-06 62128:7.5642961e-06 62129:7.5642961e-06 62132:7.5642961e-06 62134:7.5642961e-06 62136:-7.5642961e-06 62137:-7.5642961e-06 62140:7.5642961e-06 62141:7.5642961e-06 62143:-7.5642961e-06 62144:-7.5642961e-06 62147:-7.5642961e-06 62149:-7.5642961e-06 62151:7.5642961e-06 62153:-7.5642961e-06 62155:-7.5642961e-06 62158:7.5642961e-06 62161:-7.5642961e-06 62163:-7.5642961e-06 62166:7.5642961e-06 62167:7.5642961e-06 62170:-7.5642961e-06 62172:-7.5642961e-06 62175:7.5642961e-06 62176:7.5642961e-06 62178:-7.5642961e-06 62179:7.5642961e-06 62181:7.5642961e-06 62185:7.5642961e-06 62187:7.5642961e-06 62189:-7.5642961e-06 62190:-7.5642961e-06 62192:-7.5642961e-06 62194:-7.5642961e-06 62196:7.5642961e-06 62197:7.5642961e-06 62205:-7.5642961e-06 62207:7.5642961e-06 62208:7.5642961e-06 62211:7.5642961e-06 62213:7.5642961e-06 62215:-7.5642961e-06 62216:-7.5642961e-06 62219:7.5642961e-06 62221:7.5642961e-06 62223:-7.5642961e-06 62224:-7.5642961e-06 62227:-7.5642961e-06 62229:-7.5642961e-06 62231:7.5642961e-06 62232:7.5642961e-06 62238:-7.5642961e-06 62240:-7.5642961e-06 62241:7.5642961e-06 62242:7.5642961e-06 62244:7.5642961e-06 62246:7.5642961e-06 62248:-7.5642961e-06 62251:-7.5642961e-06 62253:7.5642961e-06 62254:7.5642961e-06 62257:7.5642961e-06 62259:7.5642961e-06 62262:-7.5642961e-06 62263:-7.5642961e-06 62266:-7.5642961e-06 62268:-7.5642961e-06 62270:7.5642961e-06 62271:7.5642961e-06 62274:-7.5642961e-06 62276:-7.5642961e-06 62279:7.5642961e-06 62280:7.5642961e-06 62283:-7.5642961e-06 62285:-7.5642961e-06 62288:7.5642961e-06 62289:7.5642961e-06 62292:-7.5642961e-06 62294:-7.5642961e-06 62296:7.5642961e-06 62297:7.5642961e-06 62301:7.5642961e-06 62304:-7.5642961e-06 62306:-7.5642961e-06 62308:7.5642961e-06 62309:7.5642961e-06 62312:-7.5642961e-06 62314:7.5642961e-06 62315:7.5642961e-06 62317:7.5642961e-06 62318:7.5642961e-06 62320:-7.5642961e-06 62321:-1.5128592e-05 62322:7.5642961e-06 62324:-7.5642961e-06 62325:-7.5642961e-06 62328:-7.5642961e-06 62330:-7.5642961e-06 62332:7.5642961e-06 62333:7.5642961e-06 62336:-7.5642961e-06 62338:-7.5642961e-06 62341:-7.5642961e-06 62343:-7.5642961e-06 62345:7.5642961e-06 62346:7.5642961e-06 62349:-7.5642961e-06 62351:-7.5642961e-06 62353:7.5642961e-06 62354:7.5642961e-06 62356:-7.5642961e-06 62358:7.5642961e-06 62359:7.5642961e-06 62361:-7.5642961e-06 62363:-7.5642961e-06 62365:7.5642961e-06 62366:7.5642961e-06 62372:7.5642961e-06 62374:7.5642961e-06 62377:-7.5642961e-06 62378:-7.5642961e-06 62381:-7.5642961e-06 62383:-7.5642961e-06 62385:7.5642961e-06 62386:7.5642961e-06 62390:7.5642961e-06 62391:7.5642961e-06 62394:7.5642961e-06 62396:7.5642961e-06 62397:-7.5642961e-06 62398:-7.5642961e-06 62400:7.5642961e-06 62401:-7.5642961e-06 62403:-7.5642961e-06 62407:-7.5642961e-06 62409:-7.5642961e-06 62412:7.5642961e-06 62413:7.5642961e-06 62416:-7.5642961e-06 62418:-7.5642961e-06 62420:7.5642961e-06 62421:7.5642961e-06 62428:7.5642961e-06 62429:7.5642961e-06 62432:-7.5642961e-06 62433:-7.5642961e-06 62435:7.5642961e-06 62436:7.5642961e-06 62438:7.5642961e-06 62439:-7.5642961e-06 62441:-7.5642961e-06 62444:-7.5642961e-06 62446:-7.5642961e-06 62448:7.5642961e-06 62450:7.5642961e-06 62452:7.5642961e-06 62454:-7.5642961e-06 62457:-7.5642961e-06 62459:-7.5642961e-06 62461:7.5642961e-06 62462:7.5642961e-06 62464:-7.5642961e-06 62465:7.5642961e-06 62467:7.5642961e-06 62472:7.5642961e-06 62474:-7.5642961e-06 62475:-7.5642961e-06 62478:-7.5642961e-06 62480:-7.5642961e-06 62483:7.5642961e-06 62484:7.5642961e-06 62487:-7.5642961e-06 62489:-7.5642961e-06 62492:7.5642961e-06 62493:7.5642961e-06 62502:-7.5642961e-06 62504:-7.5642961e-06 62506:7.5642961e-06 62507:7.5642961e-06 62510:-7.5642961e-06 62512:-7.5642961e-06 62514:7.5642961e-06 62515:7.5642961e-06 62518:-7.5642961e-06 62520:-7.5642961e-06 62522:7.5642961e-06 62523:7.5642961e-06 62526:-7.5642961e-06 62528:-7.5642961e-06 62530:7.5642961e-06 62531:7.5642961e-06 62533:7.5642961e-06 62535:7.5642961e-06 62538:-7.5642961e-06 62539:-7.5642961e-06 62541:7.5642961e-06 62543:7.5642961e-06 62545:-7.5642961e-06 62546:-7.5642961e-06 62548:-7.5642961e-06 62550:-7.5642961e-06 62552:7.5642961e-06 62553:7.5642961e-06 62561:-7.5642961e-06 62563:-7.5642961e-06 62566:7.5642961e-06 62567:7.5642961e-06 62570:7.5642961e-06 62572:7.5642961e-06 62575:-7.5642961e-06 62576:-7.5642961e-06 62579:7.5642961e-06 62581:7.5642961e-06 62583:-7.5642961e-06 62585:-7.5642961e-06 62587:-7.5642961e-06 62588:7.5642961e-06 62589:7.5642961e-06 62591:7.5642961e-06 62593:-7.5642961e-06 62596:-7.5642961e-06 62599:7.5642961e-06 62600:7.5642961e-06 62603:7.5642961e-06 62605:7.5642961e-06 62608:-7.5642961e-06 62609:-7.5642961e-06 62611:-7.5642961e-06 62612:-7.5642961e-06 62614:7.5642961e-06 62615:7.5642961e-06 62618:-7.5642961e-06 62620:-7.5642961e-06 62623:7.5642961e-06 62624:7.5642961e-06 62633:-7.5642961e-06 62635:7.5642961e-06 62636:7.5642961e-06 62639:-7.5642961e-06 62642:7.5642961e-06 62643:7.5642961e-06 62646:7.5642961e-06 62648:7.5642961e-06 62650:-7.5642961e-06 62651:-7.5642961e-06 62654:7.5642961e-06 62656:7.5642961e-06 62659:-7.5642961e-06 62660:-7.5642961e-06 62663:-7.5642961e-06 62665:-7.5642961e-06 62667:7.5642961e-06 62668:7.5642961e-06 62671:7.5642961e-06 62673:7.5642961e-06 62676:-7.5642961e-06 62677:-7.5642961e-06 62680:-7.5642961e-06 62682:-7.5642961e-06 62684:7.5642961e-06 62685:7.5642961e-06 62687:-7.5642961e-06 62689:-7.5642961e-06 62692:7.5642961e-06 62693:7.5642961e-06 62695:7.5642961e-06 62696:-7.5642961e-06 62698:-7.5642961e-06 62700:-7.5642961e-06 62702:7.5642961e-06 62703:7.5642961e-06 62706:7.5642961e-06 62708:7.5642961e-06 62711:-7.5642961e-06 62712:-7.5642961e-06 62715:7.5642961e-06 62717:7.5642961e-06 62719:-7.5642961e-06 62720:-7.5642961e-06 62723:-7.5642961e-06 62725:-7.5642961e-06 62728:7.5642961e-06 62729:7.5642961e-06 62731:7.5642961e-06 62733:-7.5642961e-06 62734:-7.5642961e-06 62737:7.5642961e-06 62739:7.5642961e-06 62740:-7.5642961e-06 62741:-7.5642961e-06 62744:-7.5642961e-06 62746:-7.5642961e-06 62749:7.5642961e-06 62750:7.5642961e-06 62753:-7.5642961e-06 62755:-7.5642961e-06 62758:7.5642961e-06 62759:7.5642961e-06 62765:7.5642961e-06 62766:7.5642961e-06 62769:-7.5642961e-06 62771:-7.5642961e-06 62774:7.5642961e-06 62775:7.5642961e-06 62777:-7.5642961e-06 62779:-7.5642961e-06 62781:7.5642961e-06 62782:7.5642961e-06 62785:-7.5642961e-06 62787:-7.5642961e-06 62790:7.5642961e-06 62791:7.5642961e-06 62797:7.5642961e-06 62800:7.5642961e-06 62802:7.5642961e-06 62805:-7.5642961e-06 62806:-7.5642961e-06 62810:-7.5642961e-06 62812:7.5642961e-06 62813:7.5642961e-06 62816:7.5642961e-06 62818:7.5642961e-06 62820:-7.5642961e-06 62821:-7.5642961e-06 62830:7.5642961e-06 62832:7.5642961e-06 62834:-7.5642961e-06 62835:-7.5642961e-06 62837:-7.5642961e-06 62838:-7.5642961e-06 62840:-7.5642961e-06 62842:7.5642961e-06 62843:7.5642961e-06 62846:7.5642961e-06 62848:7.5642961e-06 62850:-7.5642961e-06 62852:-7.5642961e-06 62854:-7.5642961e-06 62856:7.5642961e-06 62857:7.5642961e-06 62860:7.5642961e-06 62862:7.5642961e-06 62864:-7.5642961e-06 62865:-7.5642961e-06 62871:7.5642961e-06 62873:7.5642961e-06 62878:-7.5642961e-06 62880:-7.5642961e-06 62883:7.5642961e-06 62884:7.5642961e-06 62887:-7.5642961e-06 62889:-7.5642961e-06 62891:7.5642961e-06 62892:7.5642961e-06 62900:7.5642961e-06 62901:-1.5128592e-05 62904:-7.5642961e-06 62906:-7.5642961e-06 62908:7.5642961e-06 62909:7.5642961e-06 62913:-7.5642961e-06 62916:7.5642961e-06 62917:7.5642961e-06 62920:7.5642961e-06 62922:-7.5642961e-06 62923:-7.5642961e-06 62926:7.5642961e-06 62928:7.5642961e-06 62930:-7.5642961e-06 62931:-7.5642961e-06 62937:7.5642961e-06 62939:-7.5642961e-06 62940:-7.5642961e-06 62943:7.5642961e-06 62945:7.5642961e-06 62947:-7.5642961e-06 62949:-7.5642961e-06 62951:-7.5642961e-06 62953:7.5642961e-06 62954:7.5642961e-06 62957:7.5642961e-06 62960:-7.5642961e-06 62962:-7.5642961e-06 62964:7.5642961e-06 62965:7.5642961e-06 62968:-7.5642961e-06 62970:-7.5642961e-06 62972:7.5642961e-06 62973:7.5642961e-06 62976:-7.5642961e-06 62978:-7.5642961e-06 62981:-7.5642961e-06 62983:-7.5642961e-06 62985:7.5642961e-06 62986:7.5642961e-06 62990:7.5642961e-06 62992:-7.5642961e-06 62995:7.5642961e-06 62997:7.5642961e-06 62999:-7.5642961e-06 63000:-7.5642961e-06 63002:7.5642961e-06 63004:7.5642961e-06 63006:-7.5642961e-06 63009:-7.5642961e-06 63011:-7.5642961e-06 63012:7.5642961e-06 63013:7.5642961e-06 63016:7.5642961e-06 63018:7.5642961e-06 63020:-7.5642961e-06 63021:-7.5642961e-06 63023:-7.5642961e-06 63025:-7.5642961e-06 63027:7.5642961e-06 63028:7.5642961e-06 63030:7.5642961e-06 63031:7.5642961e-06 63033:-7.5642961e-06 63034:-7.5642961e-06 63036:7.5642961e-06 63037:7.5642961e-06 63039:-7.5642961e-06 63040:-7.5642961e-06 63047:-7.5642961e-06 63049:-7.5642961e-06 63051:7.5642961e-06 63052:7.5642961e-06 63055:7.5642961e-06 63058:-7.5642961e-06 63059:-7.5642961e-06 63066:-7.5642961e-06 63068:-7.5642961e-06 63071:7.5642961e-06 63072:7.5642961e-06 63079:7.5642961e-06 63081:7.5642961e-06 63083:-7.5642961e-06 63084:-7.5642961e-06 63090:-7.5642961e-06 63092:-7.5642961e-06 63094:7.5642961e-06 63095:7.5642961e-06 63100:7.5642961e-06 63102:7.5642961e-06 63105:-7.5642961e-06 63106:-7.5642961e-06 64824:-7.5642961e-06 64826:-7.5642961e-06 64829:7.5642961e-06 64830:7.5642961e-06 64839:7.5642961e-06 64841:7.5642961e-06 64844:-7.5642961e-06 64845:-7.5642961e-06 64847:-7.5642961e-06 64848:-7.5642961e-06 64849:-7.5642961e-06 64850:-7.5642961e-06 64853:7.5642961e-06 64854:7.5642961e-06 64857:-7.5642961e-06 64859:-7.5642961e-06 64862:7.5642961e-06 64863:7.5642961e-06 64866:7.5642961e-06 64868:7.5642961e-06 64873:7.5642961e-06 64878:-1.5128592e-05 64882:7.5642961e-06 64884:7.5642961e-06 64887:-7.5642961e-06 64888:-7.5642961e-06 64891:-7.5642961e-06 64893:-7.5642961e-06 64896:7.5642961e-06 64897:7.5642961e-06 64900:-1.5128592e-05 64902:7.5642961e-06 64905:1.5128592e-05 64906:7.5642961e-06 64909:-7.5642961e-06 64911:-7.5642961e-06 64914:7.5642961e-06 64915:7.5642961e-06 64917:1.5128592e-05 64918:-1.5128592e-05 64923:-7.5642961e-06 64925:-7.5642961e-06 64928:7.5642961e-06 64929:7.5642961e-06 64932:7.5642961e-06 64934:7.5642961e-06 64937:-7.5642961e-06 64938:-7.5642961e-06 64940:7.5642961e-06 64947:-7.5642961e-06 64952:7.5642961e-06 64953:7.5642961e-06 64956:-7.5642961e-06 64958:-7.5642961e-06 64961:1.5128592e-05 64964:-7.5642961e-06 64965:7.5642961e-06 64966:-7.5642961e-06 64969:7.5642961e-06 64970:7.5642961e-06 64973:-7.5642961e-06 64975:-7.5642961e-06 64978:7.5642961e-06 64979:7.5642961e-06 65004:7.5642961e-06 65006:7.5642961e-06 65009:-7.5642961e-06 65010:-7.5642961e-06 65013:7.5642961e-06 65015:7.5642961e-06 65018:-7.5642961e-06 65019:-7.5642961e-06 65022:7.5642961e-06 65024:7.5642961e-06 65027:-7.5642961e-06 65028:-7.5642961e-06 65031:-7.5642961e-06 65033:-7.5642961e-06 65036:7.5642961e-06 65037:7.5642961e-06 65040:7.5642961e-06 65042:7.5642961e-06 65044:-7.5642961e-06 65045:-7.5642961e-06 65050:-7.5642961e-06 65053:7.5642961e-06 65054:7.5642961e-06 65058:7.5642961e-06 65061:-7.5642961e-06 65062:-7.5642961e-06 65065:7.5642961e-06 65067:7.5642961e-06 65070:-7.5642961e-06 65071:-7.5642961e-06 65074:-7.5642961e-06 65076:-1.5128592e-05 65079:7.5642961e-06 65080:7.5642961e-06 65089:-7.5642961e-06 65091:-7.5642961e-06 65094:7.5642961e-06 65095:7.5642961e-06 65110:-7.5642961e-06 65112:1.5128592e-05 65116:7.5642961e-06 65117:-7.5642961e-06 65118:7.5642961e-06 65120:-1.5128592e-05 65121:-7.5642961e-06 65124:-7.5642961e-06 65126:-7.5642961e-06 65129:7.5642961e-06 65130:7.5642961e-06 65133:-7.5642961e-06 65138:7.5642961e-06 65139:7.5642961e-06 65142:2.269289e-05 65144:1.5128592e-05 65147:-7.5642961e-06 65148:-7.5642961e-06 65151:7.5642961e-06 65153:-7.5642961e-06 65156:-7.5642961e-06 65157:-7.5642961e-06 65160:-7.5642961e-06 65166:1.5128592e-05 65168:7.5642961e-06 65171:-7.5642961e-06 65172:-7.5642961e-06 65175:7.5642961e-06 65177:7.5642961e-06 65180:-7.5642961e-06 65181:-7.5642961e-06 65184:7.5642961e-06 65186:7.5642961e-06 65188:-7.5642961e-06 65189:-7.5642961e-06 65192:7.5642961e-06 65194:7.5642961e-06 65197:-7.5642961e-06 65198:-7.5642961e-06 65201:7.5642961e-06 65203:7.5642961e-06 65207:-7.5642961e-06 65212:-7.5642961e-06 65214:7.5642961e-06 65227:7.5642961e-06 65228:-7.5642961e-06 65232:7.5642961e-06 65234:7.5642961e-06 65237:-7.5642961e-06 65238:-7.5642961e-06 65241:7.5642961e-06 65243:-7.5642961e-06 65246:1.5128592e-05 65248:-2.269289e-05 65255:7.5642961e-06 65257:7.5642961e-06 65259:-7.5642961e-06 65260:-7.5642961e-06 65263:-7.5642961e-06 65265:-7.5642961e-06 65267:7.5642961e-06 65268:7.5642961e-06 65271:7.5642961e-06 65273:7.5642961e-06 65280:-7.5642961e-06 65282:-7.5642961e-06 65285:7.5642961e-06 65286:7.5642961e-06 65289:7.5642961e-06 65291:7.5642961e-06 65294:-7.5642961e-06 65297:-7.5642961e-06 65299:-7.5642961e-06 65301:7.5642961e-06 65302:7.5642961e-06 65308:7.5642961e-06 65310:7.5642961e-06 65313:-7.5642961e-06 65314:-7.5642961e-06 65317:-7.5642961e-06 65319:-7.5642961e-06 65321:7.5642961e-06 65322:7.5642961e-06 65324:7.5642961e-06 65326:7.5642961e-06 65329:-7.5642961e-06 65332:-2.269289e-05 65334:-7.5642961e-06 65335:7.5642961e-06 65336:7.5642961e-06 65341:7.5642961e-06 65343:7.5642961e-06 65345:-7.5642961e-06 65346:-7.5642961e-06 65360:-7.5642961e-06 65364:7.5642961e-06 65365:1.5128592e-05 65374:7.5642961e-06 65376:7.5642961e-06 65378:-7.5642961e-06 65379:-7.5642961e-06 65395:7.5642961e-06 65399:-7.5642961e-06 65404:7.5642961e-06 65407:-7.5642961e-06 65408:-1.5128592e-05 65411:-7.5642961e-06 65413:-7.5642961e-06 65415:7.5642961e-06 65416:7.5642961e-06 65419:-7.5642961e-06 65421:-7.5642961e-06 65423:7.5642961e-06 65424:7.5642961e-06 65426:7.5642961e-06 65428:7.5642961e-06 65429:-7.5642961e-06 65430:-7.5642961e-06 65439:7.5642961e-06 65441:7.5642961e-06 65442:-7.5642961e-06 65443:-7.5642961e-06 65452:7.5642961e-06 65454:7.5642961e-06 65457:-7.5642961e-06 65458:-7.5642961e-06 65461:7.5642961e-06 65463:7.5642961e-06 65464:-7.5642961e-06 65465:-7.5642961e-06 65468:-7.5642961e-06 65470:-7.5642961e-06 65472:7.5642961e-06 65473:7.5642961e-06 65476:-7.5642961e-06 65478:-7.5642961e-06 65480:7.5642961e-06 65481:7.5642961e-06 65484:7.5642961e-06 65486:7.5642961e-06 65489:-7.5642961e-06 65492:7.5642961e-06 65493:-7.5642961e-06 65494:7.5642961e-06 65499:-7.5642961e-06 65501:-7.5642961e-06 65504:7.5642961e-06 65505:7.5642961e-06 65508:-7.5642961e-06 65510:-7.5642961e-06 65513:7.5642961e-06 65514:7.5642961e-06 65517:7.5642961e-06 65519:7.5642961e-06 65521:-7.5642961e-06 65522:-7.5642961e-06 65525:-7.5642961e-06 65527:-7.5642961e-06 65530:1.5128592e-05 65531:7.5642961e-06 65534:7.5642961e-06 65536:7.5642961e-06 65539:-7.5642961e-06 65540:-7.5642961e-06 65543:7.5642961e-06 65545:7.5642961e-06 65547:-7.5642961e-06 65548:-7.5642961e-06 65551:-7.5642961e-06 65553:-7.5642961e-06 65556:7.5642961e-06 65557:1.5128592e-05 65560:7.5642961e-06 65562:1.5128592e-05 65565:-7.5642961e-06 65568:7.5642961e-06 65576:-7.5642961e-06 65578:-7.5642961e-06 65580:7.5642961e-06 65581:7.5642961e-06 65584:-7.5642961e-06 65586:-7.5642961e-06 65589:7.5642961e-06 65590:7.5642961e-06 65593:-7.5642961e-06 65595:-7.5642961e-06 65598:7.5642961e-06 65599:7.5642961e-06 65602:-7.5642961e-06 65604:-7.5642961e-06 65607:7.5642961e-06 65608:7.5642961e-06 65615:-7.5642961e-06 65619:7.5642961e-06 65621:7.5642961e-06 65622:-7.5642961e-06 65624:-7.5642961e-06 65628:7.5642961e-06 65630:7.5642961e-06 65633:-7.5642961e-06 65637:7.5642961e-06 65639:1.5128592e-05 65642:-7.5642961e-06 65643:-7.5642961e-06 65646:-7.5642961e-06 65648:-7.5642961e-06 65651:7.5642961e-06 65652:7.5642961e-06 65655:7.5642961e-06 65657:7.5642961e-06 65658:-7.5642961e-06 65659:-7.5642961e-06 65662:7.5642961e-06 65664:7.5642961e-06 65667:-7.5642961e-06 65669:7.5642961e-06 65674:7.5642961e-06 65676:1.5128592e-05 65680:7.5642961e-06 65681:-7.5642961e-06 65684:-7.5642961e-06 65685:-7.5642961e-06 65688:7.5642961e-06 65690:7.5642961e-06 65694:-7.5642961e-06 65697:7.5642961e-06 65699:7.5642961e-06 65702:-7.5642961e-06 65703:-7.5642961e-06 65706:7.5642961e-06 65708:7.5642961e-06 65710:-7.5642961e-06 65711:-7.5642961e-06 65714:7.5642961e-06 65716:7.5642961e-06 65719:-7.5642961e-06 65720:-7.5642961e-06 65723:-1.5128592e-05 65725:-7.5642961e-06 65728:7.5642961e-06 65729:7.5642961e-06 65732:-7.5642961e-06 65734:-7.5642961e-06 65737:7.5642961e-06 65740:-7.5642961e-06 65746:-2.269289e-05 65750:7.5642961e-06 65751:7.5642961e-06 65754:-7.5642961e-06 65756:-7.5642961e-06 65758:7.5642961e-06 65759:7.5642961e-06 65762:7.5642961e-06 65765:-7.5642961e-06 65767:7.5642961e-06 65769:7.5642961e-06 65772:-7.5642961e-06 65773:-7.5642961e-06 65782:7.5642961e-06 65784:7.5642961e-06 65787:-7.5642961e-06 65788:-7.5642961e-06 65791:-7.5642961e-06 65793:-7.5642961e-06 65795:7.5642961e-06 65796:7.5642961e-06 65799:7.5642961e-06 65801:7.5642961e-06 65802:-7.5642961e-06 65803:-7.5642961e-06 65805:-7.5642961e-06 65807:-7.5642961e-06 65814:-7.5642961e-06 65817:-7.5642961e-06 65819:-7.5642961e-06 65822:7.5642961e-06 65823:7.5642961e-06 65826:-7.5642961e-06 65828:-7.5642961e-06 65831:7.5642961e-06 65832:7.5642961e-06 65835:-7.5642961e-06 65837:-7.5642961e-06 65839:7.5642961e-06 65842:7.5642961e-06 65843:-7.5642961e-06 65845:-7.5642961e-06 65848:-7.5642961e-06 65850:-7.5642961e-06 65853:7.5642961e-06 65854:7.5642961e-06 65857:-7.5642961e-06 65859:-7.5642961e-06 65862:7.5642961e-06 65863:7.5642961e-06 65872:-7.5642961e-06 65874:-7.5642961e-06 65877:7.5642961e-06 65878:7.5642961e-06 65881:7.5642961e-06 65883:7.5642961e-06 65886:-7.5642961e-06 65887:-7.5642961e-06 65890:-7.5642961e-06 65892:-7.5642961e-06 65895:7.5642961e-06 65896:7.5642961e-06 65900:7.5642961e-06 65902:-7.5642961e-06 65903:-7.5642961e-06 65906:-7.5642961e-06 65908:-7.5642961e-06 65910:7.5642961e-06 65911:7.5642961e-06 65914:-7.5642961e-06 65916:-7.5642961e-06 65919:7.5642961e-06 65920:7.5642961e-06 65923:-7.5642961e-06 65925:-7.5642961e-06 65928:7.5642961e-06 65930:7.5642961e-06 65931:7.5642961e-06 65933:-7.5642961e-06 65934:-7.5642961e-06 65937:7.5642961e-06 65939:7.5642961e-06 65942:-7.5642961e-06 65943:-7.5642961e-06 65946:7.5642961e-06 65948:7.5642961e-06 65951:-7.5642961e-06 65952:-7.5642961e-06 65964:7.5642961e-06 65968:7.5642961e-06 65970:7.5642961e-06 65973:-7.5642961e-06 65974:-7.5642961e-06 65977:7.5642961e-06 65979:7.5642961e-06 65981:-7.5642961e-06 65982:-7.5642961e-06 65988:7.5642961e-06 65990:7.5642961e-06 65992:-7.5642961e-06 65993:-7.5642961e-06 65995:-7.5642961e-06 65997:-7.5642961e-06 65999:7.5642961e-06 66000:7.5642961e-06 66004:-7.5642961e-06 66007:7.5642961e-06 66008:7.5642961e-06 66016:7.5642961e-06 66018:7.5642961e-06 66021:-7.5642961e-06 66024:7.5642961e-06 66026:7.5642961e-06 66028:-7.5642961e-06 66029:-7.5642961e-06 66039:-7.5642961e-06 66041:-7.5642961e-06 66043:-7.5642961e-06 66046:7.5642961e-06 66047:7.5642961e-06 66052:7.5642961e-06 66056:7.5642961e-06 66067:-7.5642961e-06 66068:7.5642961e-06 66069:7.5642961e-06 66072:-7.5642961e-06 66074:-7.5642961e-06 66076:7.5642961e-06 66077:7.5642961e-06 66079:-7.5642961e-06 66080:-7.5642961e-06 66083:-7.5642961e-06 66085:-7.5642961e-06 66088:7.5642961e-06 66097:-7.5642961e-06 66099:-7.5642961e-06 66101:7.5642961e-06 66102:7.5642961e-06 66105:7.5642961e-06 66107:7.5642961e-06 66110:-7.5642961e-06 66111:-7.5642961e-06 66114:-7.5642961e-06 66116:-7.5642961e-06 66118:7.5642961e-06 66119:7.5642961e-06 66128:-7.5642961e-06 66130:7.5642961e-06 66131:7.5642961e-06 66133:-7.5642961e-06 66134:7.5642961e-06 66136:7.5642961e-06 66140:-7.5642961e-06 66143:-7.5642961e-06 66145:-7.5642961e-06 66148:7.5642961e-06 66149:7.5642961e-06 66167:-7.5642961e-06 66169:-7.5642961e-06 66172:7.5642961e-06 66175:-7.5642961e-06 66177:-7.5642961e-06 66181:7.5642961e-06 66183:7.5642961e-06 66185:7.5642961e-06 66187:-7.5642961e-06 66188:-1.5128592e-05 66191:7.5642961e-06 66193:7.5642961e-06 66196:-7.5642961e-06 66197:-7.5642961e-06 66200:7.5642961e-06 66202:7.5642961e-06 66205:-7.5642961e-06 66206:-7.5642961e-06 66209:-7.5642961e-06 66211:-7.5642961e-06 66214:7.5642961e-06 66215:7.5642961e-06 66218:7.5642961e-06 66220:7.5642961e-06 66222:-7.5642961e-06 66223:-7.5642961e-06 66226:-7.5642961e-06 66228:-7.5642961e-06 66229:7.5642961e-06 66230:7.5642961e-06 66232:7.5642961e-06 66234:7.5642961e-06 66237:-7.5642961e-06 66238:-7.5642961e-06 66246:-7.5642961e-06 66248:-7.5642961e-06 66251:7.5642961e-06 66252:7.5642961e-06 66260:-7.5642961e-06 66262:-7.5642961e-06 66264:7.5642961e-06 66265:7.5642961e-06 66266:7.5642961e-06 66268:-7.5642961e-06 66270:-7.5642961e-06 66273:7.5642961e-06 66274:7.5642961e-06 66276:7.5642961e-06 66279:7.5642961e-06 66281:7.5642961e-06 66282:-7.5642961e-06 66283:-7.5642961e-06 66286:7.5642961e-06 66288:7.5642961e-06 66290:-7.5642961e-06 66291:-7.5642961e-06 66299:7.5642961e-06 66301:7.5642961e-06 66303:-7.5642961e-06 66304:-7.5642961e-06 66307:-7.5642961e-06 66309:-7.5642961e-06 66312:7.5642961e-06 66313:7.5642961e-06 66316:7.5642961e-06 66318:-7.5642961e-06 66319:-7.5642961e-06 66322:7.5642961e-06 66324:7.5642961e-06 66327:-7.5642961e-06 66328:-7.5642961e-06 66331:-7.5642961e-06 66332:7.5642961e-06 66333:7.5642961e-06 66336:-7.5642961e-06 66341:1.5128592e-05 66342:1.5128592e-05 66346:7.5642961e-06 66349:-7.5642961e-06 66350:-7.5642961e-06 66354:7.5642961e-06 66357:-7.5642961e-06 66358:-7.5642961e-06 66369:7.5642961e-06 66373:-7.5642961e-06 66374:-7.5642961e-06 66377:7.5642961e-06 66379:7.5642961e-06 66382:-7.5642961e-06 66383:-7.5642961e-06 66386:7.5642961e-06 66388:7.5642961e-06 66391:-7.5642961e-06 66393:7.5642961e-06 66395:7.5642961e-06 66398:-7.5642961e-06 66399:-7.5642961e-06 66402:-7.5642961e-06 66404:-7.5642961e-06 66406:7.5642961e-06 66407:7.5642961e-06 66410:-7.5642961e-06 66412:-7.5642961e-06 66414:7.5642961e-06 66415:7.5642961e-06 66418:7.5642961e-06 66420:7.5642961e-06 66421:-7.5642961e-06 66423:-7.5642961e-06 66429:-7.5642961e-06 66431:-7.5642961e-06 66433:-7.5642961e-06 66436:7.5642961e-06 66437:7.5642961e-06 66446:7.5642961e-06 66448:7.5642961e-06 66450:-7.5642961e-06 66451:-7.5642961e-06 66454:7.5642961e-06 66456:7.5642961e-06 66459:-7.5642961e-06 66460:-7.5642961e-06 66463:-7.5642961e-06 66465:-7.5642961e-06 66466:7.5642961e-06 66467:7.5642961e-06 66470:7.5642961e-06 66472:7.5642961e-06 66475:-7.5642961e-06 66478:-7.5642961e-06 66480:-7.5642961e-06 66482:7.5642961e-06 66483:7.5642961e-06 66487:7.5642961e-06 66490:-7.5642961e-06 66491:-7.5642961e-06 66499:7.5642961e-06 66501:-7.5642961e-06 66504:7.5642961e-06 66508:-7.5642961e-06 66509:-7.5642961e-06 66512:7.5642961e-06 66514:7.5642961e-06 66517:-7.5642961e-06 66518:-7.5642961e-06 66520:-7.5642961e-06 66521:7.5642961e-06 66522:7.5642961e-06 66525:7.5642961e-06 66527:7.5642961e-06 66529:-7.5642961e-06 66530:-7.5642961e-06 66532:-7.5642961e-06 66533:7.5642961e-06 66535:7.5642961e-06 66542:7.5642961e-06 66544:7.5642961e-06 66547:-7.5642961e-06 66548:-7.5642961e-06 66554:7.5642961e-06 66556:7.5642961e-06 66559:-7.5642961e-06 66560:-7.5642961e-06 66562:7.5642961e-06 66564:-7.5642961e-06 66565:-7.5642961e-06 66572:-7.5642961e-06 66574:-7.5642961e-06 66576:7.5642961e-06 66577:7.5642961e-06 66580:7.5642961e-06 66582:7.5642961e-06 66585:-1.5128592e-05 66589:7.5642961e-06 66591:7.5642961e-06 66593:-7.5642961e-06 66594:-7.5642961e-06 66597:7.5642961e-06 66600:-7.5642961e-06 66603:7.5642961e-06 66605:7.5642961e-06 66607:-7.5642961e-06 66610:7.5642961e-06 66612:7.5642961e-06 66614:-7.5642961e-06 66616:7.5642961e-06 66618:7.5642961e-06 66620:-7.5642961e-06 66621:-7.5642961e-06 66629:-7.5642961e-06 66631:-7.5642961e-06 66633:7.5642961e-06 66634:7.5642961e-06 66645:7.5642961e-06 66646:-7.5642961e-06 66647:-7.5642961e-06 66650:7.5642961e-06 66653:-7.5642961e-06 66654:-7.5642961e-06 66657:7.5642961e-06 66659:7.5642961e-06 66662:-7.5642961e-06 66663:-7.5642961e-06 66672:7.5642961e-06 66674:7.5642961e-06 66676:-7.5642961e-06 66677:-7.5642961e-06 66685:7.5642961e-06 66687:7.5642961e-06 66689:-7.5642961e-06 66690:-7.5642961e-06 66692:-7.5642961e-06 66693:7.5642961e-06 66695:7.5642961e-06 66698:7.5642961e-06 66700:7.5642961e-06 66701:-7.5642961e-06 66702:-7.5642961e-06 66704:-7.5642961e-06 66706:-7.5642961e-06 66709:7.5642961e-06 66710:7.5642961e-06 66713:7.5642961e-06 66715:7.5642961e-06 66718:-7.5642961e-06 66719:-7.5642961e-06 66726:7.5642961e-06 66728:7.5642961e-06 66730:-7.5642961e-06 66731:-7.5642961e-06 66734:-7.5642961e-06 66736:-7.5642961e-06 66738:7.5642961e-06 66739:7.5642961e-06 66742:-7.5642961e-06 66744:-7.5642961e-06 66746:7.5642961e-06 66747:7.5642961e-06 66750:7.5642961e-06 66752:-7.5642961e-06 66753:-7.5642961e-06 66757:-7.5642961e-06 66758:-7.5642961e-06 66760:-7.5642961e-06 66764:-7.5642961e-06 66765:7.5642961e-06 66784:7.5642961e-06 66786:7.5642961e-06 66791:-7.5642961e-06 66793:-7.5642961e-06 66795:7.5642961e-06 66796:7.5642961e-06 66799:-7.5642961e-06 66801:7.5642961e-06 66802:7.5642961e-06 66805:-7.5642961e-06 66807:-7.5642961e-06 66810:7.5642961e-06 66811:7.5642961e-06 66814:7.5642961e-06 66816:7.5642961e-06 66819:-7.5642961e-06 66820:-7.5642961e-06 66823:7.5642961e-06 66825:7.5642961e-06 66827:-7.5642961e-06 66828:-7.5642961e-06 66837:7.5642961e-06 66839:7.5642961e-06 66842:-7.5642961e-06 66843:-7.5642961e-06 66846:-7.5642961e-06 66848:-7.5642961e-06 66850:7.5642961e-06 66851:7.5642961e-06 66860:7.5642961e-06 66862:7.5642961e-06 66865:-7.5642961e-06 66866:-7.5642961e-06 66870:7.5642961e-06 66873:-7.5642961e-06 66874:-7.5642961e-06 66888:-7.5642961e-06 66890:-7.5642961e-06 66892:7.5642961e-06 66893:7.5642961e-06 66895:7.5642961e-06 66897:7.5642961e-06 66898:-3.0257184e-05 66904:7.5642961e-06 66906:7.5642961e-06 66909:-7.5642961e-06 66910:-7.5642961e-06 66913:7.5642961e-06 66915:7.5642961e-06 66918:-7.5642961e-06 66923:7.5642961e-06 66925:-7.5642961e-06 66927:7.5642961e-06 66929:7.5642961e-06 66932:-7.5642961e-06 66933:-7.5642961e-06 66935:7.5642961e-06 66936:-7.5642961e-06 66945:-7.5642961e-06 66947:-7.5642961e-06 66950:7.5642961e-06 66951:7.5642961e-06 66953:-7.5642961e-06 66954:7.5642961e-06 66956:7.5642961e-06 66959:-7.5642961e-06 66960:7.5642961e-06 66962:7.5642961e-06 66966:7.5642961e-06 66968:-7.5642961e-06 66971:-7.5642961e-06 66973:-7.5642961e-06 66976:7.5642961e-06 66978:7.5642961e-06 66980:7.5642961e-06 66982:7.5642961e-06 66984:-7.5642961e-06 66985:-7.5642961e-06 66996:-7.5642961e-06 66997:-7.5642961e-06 66999:7.5642961e-06 67001:7.5642961e-06 67004:-7.5642961e-06 67005:-7.5642961e-06 67008:7.5642961e-06 67010:7.5642961e-06 67013:-7.5642961e-06 67014:-7.5642961e-06 67017:-7.5642961e-06 67019:-7.5642961e-06 67021:7.5642961e-06 67022:7.5642961e-06 67025:7.5642961e-06 67027:7.5642961e-06 67030:-7.5642961e-06 67031:-7.5642961e-06 67035:-7.5642961e-06 67036:7.5642961e-06 67037:7.5642961e-06 67040:-7.5642961e-06 67042:7.5642961e-06 67044:-7.5642961e-06 67046:-7.5642961e-06 67048:7.5642961e-06 67049:7.5642961e-06 67052:-7.5642961e-06 67054:-7.5642961e-06 67056:7.5642961e-06 67057:7.5642961e-06 67060:-7.5642961e-06 67062:-7.5642961e-06 67065:7.5642961e-06 67066:7.5642961e-06 67069:7.5642961e-06 67074:-7.5642961e-06 67076:-7.5642961e-06 67079:7.5642961e-06 67082:-7.5642961e-06 67084:-7.5642961e-06 67087:1.5128592e-05 67090:-7.5642961e-06 67092:7.5642961e-06 67093:7.5642961e-06 67097:-7.5642961e-06 67098:-7.5642961e-06 67106:-7.5642961e-06 67108:-7.5642961e-06 67111:7.5642961e-06 67112:7.5642961e-06 67115:7.5642961e-06 67117:7.5642961e-06 67119:-7.5642961e-06 67120:-7.5642961e-06 67123:7.5642961e-06 67125:7.5642961e-06 67128:-7.5642961e-06 67129:-7.5642961e-06 67138:-7.5642961e-06 67140:-7.5642961e-06 67142:7.5642961e-06 67143:7.5642961e-06 67145:7.5642961e-06 67147:-7.5642961e-06 67148:-7.5642961e-06 67149:7.5642961e-06 67150:-7.5642961e-06 67152:7.5642961e-06 67154:7.5642961e-06 67157:-7.5642961e-06 67160:7.5642961e-06 67162:7.5642961e-06 67164:-7.5642961e-06 67165:-7.5642961e-06 67168:7.5642961e-06 67170:7.5642961e-06 67171:-7.5642961e-06 67172:-7.5642961e-06 67177:-7.5642961e-06 67179:-7.5642961e-06 67181:7.5642961e-06 67182:7.5642961e-06 67185:-7.5642961e-06 67187:-7.5642961e-06 67189:7.5642961e-06 67192:7.5642961e-06 67194:7.5642961e-06 67197:-7.5642961e-06 67199:-7.5642961e-06 67200:7.5642961e-06 67202:7.5642961e-06 67209:-7.5642961e-06 67211:-7.5642961e-06 67212:7.5642961e-06 67213:7.5642961e-06 67215:7.5642961e-06 67217:7.5642961e-06 67220:-7.5642961e-06 67222:7.5642961e-06 67223:7.5642961e-06 67231:7.5642961e-06 67233:7.5642961e-06 67235:-7.5642961e-06 67236:-7.5642961e-06 67239:7.5642961e-06 67241:7.5642961e-06 67243:-7.5642961e-06 67244:-7.5642961e-06 67252:7.5642961e-06 67254:7.5642961e-06 67257:-7.5642961e-06 67258:-7.5642961e-06 67261:7.5642961e-06 67263:7.5642961e-06 67265:-7.5642961e-06 67266:-7.5642961e-06 67268:7.5642961e-06 67270:7.5642961e-06 67272:-7.5642961e-06 67273:-7.5642961e-06 67275:-7.5642961e-06 67283:1.5128592e-05 67284:7.5642961e-06 67287:-7.5642961e-06 67291:7.5642961e-06 67293:7.5642961e-06 67295:-7.5642961e-06 67296:-7.5642961e-06 67298:7.5642961e-06 67300:-7.5642961e-06 67303:7.5642961e-06 67305:7.5642961e-06 67307:-7.5642961e-06 67308:-7.5642961e-06 67316:7.5642961e-06 67318:-7.5642961e-06 67321:7.5642961e-06 67323:7.5642961e-06 67325:-7.5642961e-06 67326:-7.5642961e-06 67328:7.5642961e-06 67330:7.5642961e-06 67333:-7.5642961e-06 67334:-7.5642961e-06 67337:7.5642961e-06 67339:7.5642961e-06 67342:-7.5642961e-06 67343:-7.5642961e-06 67346:7.5642961e-06 67351:-7.5642961e-06 67352:-7.5642961e-06 67354:7.5642961e-06 67355:7.5642961e-06 67357:-7.5642961e-06 67360:7.5642961e-06 67362:-7.5642961e-06 67369:7.5642961e-06 67374:7.5642961e-06 67376:7.5642961e-06 67377:-7.5642961e-06 67378:-7.5642961e-06 67381:7.5642961e-06 67383:7.5642961e-06 67386:-7.5642961e-06 67387:-7.5642961e-06 67390:7.5642961e-06 67392:7.5642961e-06 67395:-7.5642961e-06 67396:-7.5642961e-06 67403:7.5642961e-06 67405:7.5642961e-06 67406:-7.5642961e-06 67407:-7.5642961e-06 67408:7.5642961e-06 67410:-7.5642961e-06 67411:-7.5642961e-06 67414:7.5642961e-06 67418:-7.5642961e-06 67419:-7.5642961e-06 67422:7.5642961e-06 67424:7.5642961e-06 67426:-7.5642961e-06 67427:-7.5642961e-06 67431:-7.5642961e-06 67433:-7.5642961e-06 67436:7.5642961e-06 67437:7.5642961e-06 67440:7.5642961e-06 67442:7.5642961e-06 67444:-7.5642961e-06 67445:-7.5642961e-06 67450:-7.5642961e-06 67451:-7.5642961e-06 67454:7.5642961e-06 67458:-7.5642961e-06 67460:7.5642961e-06 67462:7.5642961e-06 67464:-7.5642961e-06 67465:-7.5642961e-06 67468:7.5642961e-06 67470:7.5642961e-06 67473:-7.5642961e-06 67474:-7.5642961e-06 67476:7.5642961e-06 67478:-7.5642961e-06 67479:-1.5128592e-05 67481:7.5642961e-06 67483:7.5642961e-06 67485:-7.5642961e-06 67486:-7.5642961e-06 67489:7.5642961e-06 67491:7.5642961e-06 67493:-7.5642961e-06 67494:-7.5642961e-06 67496:7.5642961e-06 67498:7.5642961e-06 67500:-1.5128592e-05 67501:-7.5642961e-06 67509:7.5642961e-06 67511:7.5642961e-06 67514:-7.5642961e-06 67517:-7.5642961e-06 67519:-7.5642961e-06 67522:7.5642961e-06 67525:7.5642961e-06 67527:-7.5642961e-06 67530:7.5642961e-06 67532:7.5642961e-06 67534:-7.5642961e-06 67535:-7.5642961e-06 67539:7.5642961e-06 67542:-7.5642961e-06 67543:-7.5642961e-06 67548:-7.5642961e-06 67550:-7.5642961e-06 67552:7.5642961e-06 67553:7.5642961e-06 67556:7.5642961e-06 67558:7.5642961e-06 67561:-1.5128592e-05 67564:7.5642961e-06 67566:7.5642961e-06 67569:-7.5642961e-06 67570:-7.5642961e-06 67574:7.5642961e-06 67577:-7.5642961e-06 67578:-7.5642961e-06 67581:7.5642961e-06 67583:7.5642961e-06 67585:-7.5642961e-06 67586:-7.5642961e-06 67592:7.5642961e-06 67593:7.5642961e-06 67595:7.5642961e-06 67598:-7.5642961e-06 67600:1.5128592e-05 67603:-7.5642961e-06 67604:-7.5642961e-06 67607:7.5642961e-06 67609:7.5642961e-06 67612:-7.5642961e-06 67613:-7.5642961e-06 67616:7.5642961e-06 67618:7.5642961e-06 67620:-7.5642961e-06 67621:-7.5642961e-06 67624:7.5642961e-06 67626:7.5642961e-06 67629:-7.5642961e-06 67634:-7.5642961e-06 67638:7.5642961e-06 67640:7.5642961e-06 67641:-7.5642961e-06 67642:-7.5642961e-06 67645:7.5642961e-06 67647:7.5642961e-06 67650:-7.5642961e-06 67651:-7.5642961e-06 67654:7.5642961e-06 67656:-7.5642961e-06 67657:-7.5642961e-06 67667:7.5642961e-06 67672:7.5642961e-06 67674:7.5642961e-06 67677:-7.5642961e-06 67680:7.5642961e-06 67682:7.5642961e-06 67684:-7.5642961e-06 67687:7.5642961e-06 67689:7.5642961e-06 67692:-7.5642961e-06 67693:-7.5642961e-06 67696:7.5642961e-06 67698:7.5642961e-06 67699:-7.5642961e-06 67701:-7.5642961e-06 67702:7.5642961e-06 67704:7.5642961e-06 67706:7.5642961e-06 67708:7.5642961e-06 67709:-7.5642961e-06 67710:-7.5642961e-06 67715:-7.5642961e-06 67717:-7.5642961e-06 67720:7.5642961e-06 67721:7.5642961e-06 67724:7.5642961e-06 67726:7.5642961e-06 67728:-7.5642961e-06 67729:-7.5642961e-06 67732:7.5642961e-06 67734:7.5642961e-06 67735:-7.5642961e-06 67736:-7.5642961e-06 67739:7.5642961e-06 67741:7.5642961e-06 67744:-7.5642961e-06 67745:-7.5642961e-06 67748:-7.5642961e-06 67750:-7.5642961e-06 67752:7.5642961e-06 67753:7.5642961e-06 67755:7.5642961e-06 67757:7.5642961e-06 67759:-7.5642961e-06 67760:-7.5642961e-06 67763:7.5642961e-06 67765:7.5642961e-06 67767:-7.5642961e-06 67768:-7.5642961e-06 67771:7.5642961e-06 67773:7.5642961e-06 67776:-7.5642961e-06 67777:-7.5642961e-06 67780:7.5642961e-06 67782:7.5642961e-06 67784:-7.5642961e-06 67785:-7.5642961e-06 67788:7.5642961e-06 67790:7.5642961e-06 67792:-7.5642961e-06 67793:-7.5642961e-06 67796:7.5642961e-06 67798:7.5642961e-06 67801:-7.5642961e-06 67802:-7.5642961e-06 67809:7.5642961e-06 67811:7.5642961e-06 67813:-7.5642961e-06 67814:-7.5642961e-06 67817:7.5642961e-06 67819:7.5642961e-06 67820:-7.5642961e-06 67821:-7.5642961e-06 67824:7.5642961e-06 67826:7.5642961e-06 67828:-7.5642961e-06 67829:-7.5642961e-06 67832:7.5642961e-06 67834:7.5642961e-06 67837:-7.5642961e-06 67838:-7.5642961e-06 67841:7.5642961e-06 67843:7.5642961e-06 67846:-7.5642961e-06 67847:-7.5642961e-06 67850:7.5642961e-06 67852:7.5642961e-06 67854:-7.5642961e-06 67855:-7.5642961e-06 67858:7.5642961e-06 67860:7.5642961e-06 67862:-7.5642961e-06 67863:-7.5642961e-06 67867:7.5642961e-06 67870:-7.5642961e-06 67871:-7.5642961e-06 67880:7.5642961e-06 67882:7.5642961e-06 67885:-7.5642961e-06 67886:-7.5642961e-06 67889:7.5642961e-06 67891:7.5642961e-06 67894:-7.5642961e-06 67895:-7.5642961e-06 67898:7.5642961e-06 67900:7.5642961e-06 67903:-7.5642961e-06 67906:7.5642961e-06 67908:7.5642961e-06 67911:-7.5642961e-06 67912:-7.5642961e-06 67914:-7.5642961e-06 67916:-7.5642961e-06 67919:7.5642961e-06 67921:7.5642961e-06 67924:-7.5642961e-06 67925:-7.5642961e-06 67928:7.5642961e-06 67930:7.5642961e-06 67932:-7.5642961e-06 67933:-7.5642961e-06 67942:7.5642961e-06 67945:-7.5642961e-06 67946:-7.5642961e-06 67949:-7.5642961e-06 67951:-7.5642961e-06 67953:7.5642961e-06 67954:7.5642961e-06 67957:7.5642961e-06 67959:7.5642961e-06 67961:-7.5642961e-06 67962:-7.5642961e-06 67969:7.5642961e-06 67971:7.5642961e-06 67974:-7.5642961e-06 67975:-7.5642961e-06 67978:7.5642961e-06 67980:7.5642961e-06 67982:-7.5642961e-06 67983:-7.5642961e-06 67986:7.5642961e-06 67988:7.5642961e-06 67991:-7.5642961e-06 67992:-7.5642961e-06 67995:-7.5642961e-06 67998:1.5128592e-05 68004:7.5642961e-06 68006:-7.5642961e-06 68007:-7.5642961e-06 68010:7.5642961e-06 68012:7.5642961e-06 68014:-7.5642961e-06 68017:-7.5642961e-06 68019:-7.5642961e-06 68021:7.5642961e-06 68022:7.5642961e-06 68024:-7.5642961e-06 68025:7.5642961e-06 68026:7.5642961e-06 68027:7.5642961e-06 68029:7.5642961e-06 68031:-7.5642961e-06 68032:-7.5642961e-06 68035:7.5642961e-06 68037:7.5642961e-06 68040:-7.5642961e-06 68041:-7.5642961e-06 68044:-7.5642961e-06 68046:-7.5642961e-06 68049:7.5642961e-06 68050:7.5642961e-06 68053:-7.5642961e-06 68055:-7.5642961e-06 68057:7.5642961e-06 68058:7.5642961e-06 68061:7.5642961e-06 68063:7.5642961e-06 68066:-7.5642961e-06 68067:-7.5642961e-06 68071:-7.5642961e-06 68074:7.5642961e-06 68075:7.5642961e-06 68078:7.5642961e-06 68080:7.5642961e-06 68082:-7.5642961e-06 68083:-7.5642961e-06 68086:7.5642961e-06 68087:7.5642961e-06 68088:7.5642961e-06 68091:-7.5642961e-06 68092:-7.5642961e-06 68095:7.5642961e-06 68097:7.5642961e-06 68100:-7.5642961e-06 68101:-7.5642961e-06 68107:-7.5642961e-06 68108:-7.5642961e-06 68111:7.5642961e-06 68113:7.5642961e-06 68115:-7.5642961e-06 68116:-7.5642961e-06 68118:7.5642961e-06 68120:7.5642961e-06 68123:-7.5642961e-06 68124:-7.5642961e-06 68127:-7.5642961e-06 68129:-7.5642961e-06 68130:7.5642961e-06 68131:7.5642961e-06 68134:7.5642961e-06 68136:7.5642961e-06 68139:-7.5642961e-06 68140:-7.5642961e-06 68143:-7.5642961e-06 68145:-7.5642961e-06 68149:-7.5642961e-06 68151:-7.5642961e-06 68154:7.5642961e-06 68155:7.5642961e-06 68158:7.5642961e-06 68160:7.5642961e-06 68163:-7.5642961e-06 68164:-7.5642961e-06 68167:7.5642961e-06 68169:7.5642961e-06 68172:-7.5642961e-06 68173:-7.5642961e-06 68175:-7.5642961e-06 68176:7.5642961e-06 68178:7.5642961e-06 68181:-7.5642961e-06 68183:-7.5642961e-06 68184:7.5642961e-06 68185:7.5642961e-06 68188:7.5642961e-06 68190:7.5642961e-06 68193:-7.5642961e-06 68194:-7.5642961e-06 68197:7.5642961e-06 68199:7.5642961e-06 68202:-7.5642961e-06 68203:-7.5642961e-06 68206:-7.5642961e-06 68208:-7.5642961e-06 68211:7.5642961e-06 68214:-1.5128592e-05 68216:-7.5642961e-06 68219:7.5642961e-06 68220:7.5642961e-06 68223:7.5642961e-06 68225:7.5642961e-06 68227:-7.5642961e-06 68230:7.5642961e-06 68232:7.5642961e-06 68234:-7.5642961e-06 68235:-7.5642961e-06 68238:-7.5642961e-06 68240:-7.5642961e-06 68241:7.5642961e-06 68242:7.5642961e-06 68244:7.5642961e-06 68245:7.5642961e-06 68248:7.5642961e-06 68250:7.5642961e-06 68252:-7.5642961e-06 68253:-7.5642961e-06 68256:7.5642961e-06 68258:7.5642961e-06 68260:-7.5642961e-06 68261:-7.5642961e-06 68264:7.5642961e-06 68266:7.5642961e-06 68269:-7.5642961e-06 68270:-7.5642961e-06 68273:7.5642961e-06 68275:7.5642961e-06 68277:-7.5642961e-06 68278:-7.5642961e-06 68280:7.5642961e-06 68282:-7.5642961e-06 68283:-7.5642961e-06 68286:-7.5642961e-06 68288:-7.5642961e-06 68290:7.5642961e-06 68291:7.5642961e-06 68294:7.5642961e-06 68296:7.5642961e-06 68299:-7.5642961e-06 68300:-7.5642961e-06 68303:7.5642961e-06 68305:7.5642961e-06 68308:-7.5642961e-06 68309:-7.5642961e-06 68312:7.5642961e-06 68314:7.5642961e-06 68316:-7.5642961e-06 68317:-7.5642961e-06 68320:7.5642961e-06 68322:7.5642961e-06 68325:-7.5642961e-06 68326:-7.5642961e-06 68329:7.5642961e-06 68331:7.5642961e-06 68334:-7.5642961e-06 68337:7.5642961e-06 68339:7.5642961e-06 68342:-7.5642961e-06 68343:-7.5642961e-06 68346:7.5642961e-06 68348:7.5642961e-06 68350:-7.5642961e-06 68351:-7.5642961e-06 68354:-7.5642961e-06 68356:-7.5642961e-06 68358:7.5642961e-06 68359:1.5128592e-05 68362:7.5642961e-06 68364:7.5642961e-06 68367:-7.5642961e-06 68368:-7.5642961e-06 68371:7.5642961e-06 68374:-7.5642961e-06 68375:-7.5642961e-06 68378:7.5642961e-06 68380:7.5642961e-06 68382:-7.5642961e-06 68383:-7.5642961e-06 68392:7.5642961e-06 68394:7.5642961e-06 68396:-7.5642961e-06 68397:-7.5642961e-06 68399:-7.5642961e-06 68401:7.5642961e-06 68402:7.5642961e-06 68404:-7.5642961e-06 68405:-7.5642961e-06 68407:7.5642961e-06 68409:-7.5642961e-06 68410:-7.5642961e-06 68413:-7.5642961e-06 68415:-7.5642961e-06 68417:7.5642961e-06 68418:7.5642961e-06 68421:7.5642961e-06 68424:-7.5642961e-06 68427:7.5642961e-06 68429:7.5642961e-06 68431:-7.5642961e-06 68432:-7.5642961e-06 68435:-7.5642961e-06 68437:-7.5642961e-06 68439:7.5642961e-06 68440:7.5642961e-06 68443:-7.5642961e-06 68444:-7.5642961e-06 68446:7.5642961e-06 68447:7.5642961e-06 68450:7.5642961e-06 68452:7.5642961e-06 68454:-7.5642961e-06 68456:7.5642961e-06 68458:7.5642961e-06 68461:-7.5642961e-06 68464:7.5642961e-06 68466:7.5642961e-06 68469:-7.5642961e-06 68470:-7.5642961e-06 68473:7.5642961e-06 68475:7.5642961e-06 68478:-7.5642961e-06 68479:-7.5642961e-06 68481:7.5642961e-06 68482:-7.5642961e-06 68484:-7.5642961e-06 68488:-7.5642961e-06 68490:-7.5642961e-06 68492:7.5642961e-06 68493:7.5642961e-06 68495:7.5642961e-06 68497:7.5642961e-06 68499:-7.5642961e-06 68500:-7.5642961e-06 68508:7.5642961e-06 68510:-7.5642961e-06 68511:-7.5642961e-06 68514:-7.5642961e-06 68516:-7.5642961e-06 68518:7.5642961e-06 68519:7.5642961e-06 68522:-7.5642961e-06 68524:-7.5642961e-06 68526:7.5642961e-06 68527:7.5642961e-06 68530:7.5642961e-06 68532:7.5642961e-06 68534:-7.5642961e-06 68535:-7.5642961e-06 68541:7.5642961e-06 68543:7.5642961e-06 68544:-7.5642961e-06 68545:-7.5642961e-06 68547:-7.5642961e-06 68549:-7.5642961e-06 68551:7.5642961e-06 68554:7.5642961e-06 68556:-7.5642961e-06 68557:-7.5642961e-06 68560:-7.5642961e-06 68562:-7.5642961e-06 68565:7.5642961e-06 68566:7.5642961e-06 68569:7.5642961e-06 68571:7.5642961e-06 68573:-7.5642961e-06 68574:-7.5642961e-06 68577:7.5642961e-06 68579:7.5642961e-06 68582:-7.5642961e-06 68583:-7.5642961e-06 68586:7.5642961e-06 68588:7.5642961e-06 68591:-7.5642961e-06 68592:-7.5642961e-06 68595:7.5642961e-06 68597:7.5642961e-06 68599:-7.5642961e-06 68600:-7.5642961e-06 68604:-7.5642961e-06 68607:7.5642961e-06 68609:7.5642961e-06 68611:-7.5642961e-06 68612:-7.5642961e-06 68615:7.5642961e-06 68617:-7.5642961e-06 68618:-7.5642961e-06 68620:-7.5642961e-06 68621:-7.5642961e-06 68623:7.5642961e-06 68624:1.5128592e-05 68625:-7.5642961e-06 68627:7.5642961e-06 68628:7.5642961e-06 68631:7.5642961e-06 68633:7.5642961e-06 68635:-7.5642961e-06 68636:-7.5642961e-06 68639:7.5642961e-06 68641:7.5642961e-06 68644:7.5642961e-06 68646:7.5642961e-06 68648:-7.5642961e-06 68649:-7.5642961e-06 68652:7.5642961e-06 68654:7.5642961e-06 68656:-7.5642961e-06 68657:-7.5642961e-06 68659:7.5642961e-06 68661:-7.5642961e-06 68662:-7.5642961e-06 68664:7.5642961e-06 68666:7.5642961e-06 68668:-7.5642961e-06 68669:-7.5642961e-06 68675:-7.5642961e-06 68677:-7.5642961e-06 68680:7.5642961e-06 68681:7.5642961e-06 68684:7.5642961e-06 68686:7.5642961e-06 68688:-7.5642961e-06 68689:-7.5642961e-06 68693:-7.5642961e-06 68694:-7.5642961e-06 68697:-7.5642961e-06 68699:-7.5642961e-06 68700:7.5642961e-06 68701:7.5642961e-06 68703:-7.5642961e-06 68704:7.5642961e-06 68706:7.5642961e-06 68710:7.5642961e-06 68712:7.5642961e-06 68715:-7.5642961e-06 68716:-7.5642961e-06 68719:7.5642961e-06 68721:7.5642961e-06 68723:-7.5642961e-06 68724:-7.5642961e-06 68731:-7.5642961e-06 68732:-7.5642961e-06 68735:7.5642961e-06 68736:7.5642961e-06 68738:-7.5642961e-06 68739:-7.5642961e-06 68741:-7.5642961e-06 68742:7.5642961e-06 68744:7.5642961e-06 68747:7.5642961e-06 68749:7.5642961e-06 68751:-7.5642961e-06 68753:-7.5642961e-06 68755:-7.5642961e-06 68757:7.5642961e-06 68760:7.5642961e-06 68762:7.5642961e-06 68764:-7.5642961e-06 68765:-7.5642961e-06 68767:7.5642961e-06 68768:-7.5642961e-06 68770:-7.5642961e-06 68775:-7.5642961e-06 68777:7.5642961e-06 68778:7.5642961e-06 68781:7.5642961e-06 68783:7.5642961e-06 68786:-7.5642961e-06 68787:-7.5642961e-06 68790:7.5642961e-06 68792:7.5642961e-06 68795:-7.5642961e-06 68796:-7.5642961e-06 68805:7.5642961e-06 68807:7.5642961e-06 68809:-7.5642961e-06 68810:-7.5642961e-06 68813:7.5642961e-06 68815:7.5642961e-06 68817:-7.5642961e-06 68818:-7.5642961e-06 68821:7.5642961e-06 68823:7.5642961e-06 68825:-7.5642961e-06 68826:-7.5642961e-06 68829:7.5642961e-06 68831:7.5642961e-06 68833:-7.5642961e-06 68834:-7.5642961e-06 68836:-7.5642961e-06 68838:-7.5642961e-06 68841:7.5642961e-06 68842:7.5642961e-06 68844:-7.5642961e-06 68846:-7.5642961e-06 68848:7.5642961e-06 68849:7.5642961e-06 68851:7.5642961e-06 68853:7.5642961e-06 68855:-7.5642961e-06 68856:-7.5642961e-06 68864:7.5642961e-06 68866:7.5642961e-06 68869:-7.5642961e-06 68870:-7.5642961e-06 68873:-7.5642961e-06 68875:-7.5642961e-06 68878:7.5642961e-06 68879:7.5642961e-06 68882:-7.5642961e-06 68884:-7.5642961e-06 68886:7.5642961e-06 68888:7.5642961e-06 68890:7.5642961e-06 68891:-7.5642961e-06 68892:-7.5642961e-06 68894:-7.5642961e-06 68896:7.5642961e-06 68899:7.5642961e-06 68902:-7.5642961e-06 68903:-7.5642961e-06 68906:-7.5642961e-06 68908:-7.5642961e-06 68911:7.5642961e-06 68912:7.5642961e-06 68914:7.5642961e-06 68915:7.5642961e-06 68917:-7.5642961e-06 68918:-7.5642961e-06 68921:7.5642961e-06 68923:7.5642961e-06 68926:-7.5642961e-06 68927:-7.5642961e-06 68936:7.5642961e-06 68938:-7.5642961e-06 68939:-7.5642961e-06 68942:7.5642961e-06 68945:-7.5642961e-06 68946:-7.5642961e-06 68949:-7.5642961e-06 68951:-7.5642961e-06 68953:7.5642961e-06 68954:7.5642961e-06 68957:-7.5642961e-06 68959:-7.5642961e-06 68962:7.5642961e-06 68963:7.5642961e-06 68966:7.5642961e-06 68968:7.5642961e-06 68970:-7.5642961e-06 68971:-7.5642961e-06 68974:-7.5642961e-06 68976:-7.5642961e-06 68979:7.5642961e-06 68980:7.5642961e-06 68983:7.5642961e-06 68985:7.5642961e-06 68987:-7.5642961e-06 68988:-7.5642961e-06 68990:7.5642961e-06 68992:7.5642961e-06 68995:-7.5642961e-06 68996:-7.5642961e-06 68998:-7.5642961e-06 68999:7.5642961e-06 69001:7.5642961e-06 69003:7.5642961e-06 69005:-7.5642961e-06 69006:-7.5642961e-06 69009:-7.5642961e-06 69011:-7.5642961e-06 69014:7.5642961e-06 69015:7.5642961e-06 69018:-7.5642961e-06 69020:-7.5642961e-06 69022:7.5642961e-06 69023:7.5642961e-06 69026:7.5642961e-06 69028:7.5642961e-06 69031:-7.5642961e-06 69032:-7.5642961e-06 69034:-7.5642961e-06 69036:7.5642961e-06 69037:7.5642961e-06 69040:-7.5642961e-06 69042:-7.5642961e-06 69043:7.5642961e-06 69044:7.5642961e-06 69047:7.5642961e-06 69049:7.5642961e-06 69052:-7.5642961e-06 69053:-7.5642961e-06 69056:7.5642961e-06 69058:7.5642961e-06 69061:-7.5642961e-06 69062:-7.5642961e-06 69068:-7.5642961e-06 69069:-7.5642961e-06 69072:7.5642961e-06 69074:7.5642961e-06 69077:-7.5642961e-06 69078:-7.5642961e-06 69080:7.5642961e-06 69082:7.5642961e-06 69084:-7.5642961e-06 69085:-7.5642961e-06 69088:7.5642961e-06 69090:7.5642961e-06 69093:-7.5642961e-06 69094:-7.5642961e-06 69100:-7.5642961e-06 69103:-7.5642961e-06 69105:-7.5642961e-06 69108:7.5642961e-06 69109:7.5642961e-06 69113:7.5642961e-06 69115:-7.5642961e-06 69116:-7.5642961e-06 69119:-7.5642961e-06 69121:-7.5642961e-06 69123:7.5642961e-06 69124:7.5642961e-06 69133:-7.5642961e-06 69135:-7.5642961e-06 69137:7.5642961e-06 69138:7.5642961e-06 69140:7.5642961e-06 69141:7.5642961e-06 69143:7.5642961e-06 69145:-7.5642961e-06 69146:-7.5642961e-06 69149:-7.5642961e-06 69151:-7.5642961e-06 69153:7.5642961e-06 69155:7.5642961e-06 69157:7.5642961e-06 69159:-7.5642961e-06 69160:-7.5642961e-06 69163:-7.5642961e-06 69165:-7.5642961e-06 69167:7.5642961e-06 69168:7.5642961e-06 69174:-7.5642961e-06 69176:-7.5642961e-06 69181:7.5642961e-06 69183:7.5642961e-06 69186:-7.5642961e-06 69187:-7.5642961e-06 69190:7.5642961e-06 69192:7.5642961e-06 69194:-7.5642961e-06 69195:-7.5642961e-06 69203:-7.5642961e-06 69204:1.5128592e-05 69207:7.5642961e-06 69209:7.5642961e-06 69211:-7.5642961e-06 69212:-7.5642961e-06 69216:7.5642961e-06 69219:-7.5642961e-06 69220:-7.5642961e-06 69223:-7.5642961e-06 69225:7.5642961e-06 69226:7.5642961e-06 69229:-7.5642961e-06 69231:-7.5642961e-06 69233:7.5642961e-06 69234:7.5642961e-06 69240:-7.5642961e-06 69242:7.5642961e-06 69243:7.5642961e-06 69246:-7.5642961e-06 69248:-7.5642961e-06 69250:7.5642961e-06 69252:7.5642961e-06 69254:7.5642961e-06 69256:-7.5642961e-06 69257:-7.5642961e-06 69260:-7.5642961e-06 69263:7.5642961e-06 69265:7.5642961e-06 69267:-7.5642961e-06 69268:-7.5642961e-06 69271:7.5642961e-06 69273:7.5642961e-06 69275:-7.5642961e-06 69276:-7.5642961e-06 69279:7.5642961e-06 69281:7.5642961e-06 69284:7.5642961e-06 69286:7.5642961e-06 69288:-7.5642961e-06 69289:-7.5642961e-06 69293:-7.5642961e-06 69295:7.5642961e-06 69298:-7.5642961e-06 69300:-7.5642961e-06 69302:7.5642961e-06 69303:7.5642961e-06 69305:-7.5642961e-06 69307:-7.5642961e-06 69309:7.5642961e-06 69312:7.5642961e-06 69314:7.5642961e-06 69315:-7.5642961e-06 69316:-7.5642961e-06 69319:-7.5642961e-06 69321:-7.5642961e-06 69323:7.5642961e-06 69324:7.5642961e-06 69326:7.5642961e-06 69328:7.5642961e-06 69330:-7.5642961e-06 69331:-7.5642961e-06 69333:-7.5642961e-06 69334:-7.5642961e-06 69336:7.5642961e-06 69337:7.5642961e-06 69339:-7.5642961e-06 69340:-7.5642961e-06 69342:7.5642961e-06 69343:7.5642961e-06 69350:7.5642961e-06 69352:7.5642961e-06 69354:-7.5642961e-06 69355:-7.5642961e-06 69358:-7.5642961e-06 69361:7.5642961e-06 69362:7.5642961e-06 69369:7.5642961e-06 69371:7.5642961e-06 69374:-7.5642961e-06 69375:-7.5642961e-06 69382:-7.5642961e-06 69384:-7.5642961e-06 69386:7.5642961e-06 69387:7.5642961e-06 69393:7.5642961e-06 69395:7.5642961e-06 69397:-7.5642961e-06 69398:-7.5642961e-06 69403:-7.5642961e-06 69405:-7.5642961e-06 69408:7.5642961e-06 69409:7.5642961e-06 #
